digraph Tree {
node [shape=box] ;
0 [label="X[2] <= 0.5\ngini = 1.0\nsamples = 16060\nvalue = [1, 1, 1 ... 1, 1, 1]"] ;
1 [label="X[21] <= 0.5\ngini = 1.0\nsamples = 15330\nvalue = [0, 0, 0 ... 1, 1, 1]"] ;
0 -> 1 [labeldistance=2.5, labelangle=45, headlabel="True"] ;
2 [label="X[16] <= 0.5\ngini = 1.0\nsamples = 14600\nvalue = [0, 0, 0 ... 1, 1, 1]"] ;
1 -> 2 ;
3 [label="X[29] <= 1.5\ngini = 1.0\nsamples = 8760\nvalue = [0, 0, 0 ... 1, 0, 1]"] ;
2 -> 3 ;
4 [label="X[0] <= 6201.5\ngini = 0.999\nsamples = 2920\nvalue = [0, 0, 0 ... 0, 0, 0]"] ;
3 -> 4 ;
5 [label="X[46] <= 0.5\ngini = 0.999\nsamples = 2187\nvalue = [0, 0, 0 ... 0, 0, 0]"] ;
4 -> 5 ;
6 [label="X[44] <= 0.5\ngini = 0.999\nsamples = 1472\nvalue = [0, 0, 0 ... 0, 0, 0]"] ;
5 -> 6 ;
7 [label="X[29] <= 0.5\ngini = 0.998\nsamples = 501\nvalue = [0, 0, 0 ... 0, 0, 0]"] ;
6 -> 7 ;
8 [label="X[0] <= 4755.5\ngini = 0.993\nsamples = 167\nvalue = [0, 0, 0 ... 0, 0, 0]"] ;
7 -> 8 ;
9 [label="X[31] <= 0.85\ngini = 0.989\nsamples = 91\nvalue = [0, 0, 0 ... 0, 0, 0]"] ;
8 -> 9 ;
10 [label="X[4] <= 44.5\ngini = 0.983\nsamples = 62\nvalue = [0, 0, 0 ... 0, 0, 0]"] ;
9 -> 10 ;
11 [label="X[39] <= -11.65\ngini = 0.97\nsamples = 33\nvalue = [0, 0, 0 ... 0, 0, 0]"] ;
10 -> 11 ;
12 [label="gini = 0.0\nsamples = 1\nvalue = [0, 0, 0 ... 0, 0, 0]"] ;
11 -> 12 ;
13 [label="X[38] <= -0.85\ngini = 0.969\nsamples = 32\nvalue = [0, 0, 0 ... 0, 0, 0]"] ;
11 -> 13 ;
14 [label="gini = 0.0\nsamples = 1\nvalue = [0, 0, 0 ... 0, 0, 0]"] ;
13 -> 14 ;
15 [label="X[0] <= 4381.5\ngini = 0.968\nsamples = 31\nvalue = [0, 0, 0 ... 0, 0, 0]"] ;
13 -> 15 ;
16 [label="gini = 0.0\nsamples = 1\nvalue = [0, 0, 0 ... 0, 0, 0]"] ;
15 -> 16 ;
17 [label="X[31] <= 0.05\ngini = 0.967\nsamples = 30\nvalue = [0, 0, 0 ... 0, 0, 0]"] ;
15 -> 17 ;
18 [label="X[4] <= 2.5\ngini = 0.962\nsamples = 26\nvalue = [0, 0, 0 ... 0, 0, 0]"] ;
17 -> 18 ;
19 [label="gini = 0.0\nsamples = 1\nvalue = [0, 0, 0 ... 0, 0, 0]"] ;
18 -> 19 ;
20 [label="X[39] <= -10.65\ngini = 0.96\nsamples = 25\nvalue = [0, 0, 0 ... 0, 0, 0]"] ;
18 -> 20 ;
21 [label="gini = 0.0\nsamples = 1\nvalue = [0, 0, 0 ... 0, 0, 0]"] ;
20 -> 21 ;
22 [label="X[39] <= -10.35\ngini = 0.958\nsamples = 24\nvalue = [0, 0, 0 ... 0, 0, 0]"] ;
20 -> 22 ;
23 [label="gini = 0.0\nsamples = 1\nvalue = [0, 0, 0 ... 0, 0, 0]"] ;
22 -> 23 ;
24 [label="X[0] <= 4382.5\ngini = 0.957\nsamples = 23\nvalue = [0, 0, 0 ... 0, 0, 0]"] ;
22 -> 24 ;
25 [label="gini = 0.0\nsamples = 1\nvalue = [0, 0, 0 ... 0, 0, 0]"] ;
24 -> 25 ;
26 [label="X[0] <= 4383.5\ngini = 0.955\nsamples = 22\nvalue = [0, 0, 0 ... 0, 0, 0]"] ;
24 -> 26 ;
27 [label="gini = 0.0\nsamples = 1\nvalue = [0, 0, 0 ... 0, 0, 0]"] ;
26 -> 27 ;
28 [label="X[38] <= 0.65\ngini = 0.952\nsamples = 21\nvalue = [0, 0, 0 ... 0, 0, 0]"] ;
26 -> 28 ;
29 [label="gini = 0.0\nsamples = 1\nvalue = [0, 0, 0 ... 0, 0, 0]"] ;
28 -> 29 ;
30 [label="X[4] <= 4.0\ngini = 0.95\nsamples = 20\nvalue = [0, 0, 0 ... 0, 0, 0]"] ;
28 -> 30 ;
31 [label="gini = 0.0\nsamples = 1\nvalue = [0, 0, 0 ... 0, 0, 0]"] ;
30 -> 31 ;
32 [label="X[38] <= 2.0\ngini = 0.947\nsamples = 19\nvalue = [0, 0, 0 ... 0, 0, 0]"] ;
30 -> 32 ;
33 [label="gini = 0.0\nsamples = 1\nvalue = [0, 0, 0 ... 0, 0, 0]"] ;
32 -> 33 ;
34 [label="X[0] <= 4384.5\ngini = 0.944\nsamples = 18\nvalue = [0, 0, 0 ... 0, 0, 0]"] ;
32 -> 34 ;
35 [label="gini = 0.0\nsamples = 1\nvalue = [0, 0, 0 ... 0, 0, 0]"] ;
34 -> 35 ;
36 [label="X[39] <= -9.8\ngini = 0.941\nsamples = 17\nvalue = [0, 0, 0 ... 0, 0, 0]"] ;
34 -> 36 ;
37 [label="gini = 0.0\nsamples = 1\nvalue = [0, 0, 0 ... 0, 0, 0]"] ;
36 -> 37 ;
38 [label="X[0] <= 4386.5\ngini = 0.938\nsamples = 16\nvalue = [0, 0, 0 ... 0, 0, 0]"] ;
36 -> 38 ;
39 [label="gini = 0.0\nsamples = 1\nvalue = [0, 0, 0 ... 0, 0, 0]"] ;
38 -> 39 ;
40 [label="X[38] <= 3.15\ngini = 0.933\nsamples = 15\nvalue = [0, 0, 0 ... 0, 0, 0]"] ;
38 -> 40 ;
41 [label="gini = 0.0\nsamples = 1\nvalue = [0, 0, 0 ... 0, 0, 0]"] ;
40 -> 41 ;
42 [label="X[39] <= -9.25\ngini = 0.929\nsamples = 14\nvalue = [0, 0, 0 ... 0, 0, 0]"] ;
40 -> 42 ;
43 [label="gini = 0.0\nsamples = 1\nvalue = [0, 0, 0 ... 0, 0, 0]"] ;
42 -> 43 ;
44 [label="X[38] <= 3.85\ngini = 0.923\nsamples = 13\nvalue = [0, 0, 0 ... 0, 0, 0]"] ;
42 -> 44 ;
45 [label="gini = 0.0\nsamples = 1\nvalue = [0, 0, 0 ... 0, 0, 0]"] ;
44 -> 45 ;
46 [label="X[38] <= 4.0\ngini = 0.917\nsamples = 12\nvalue = [0, 0, 0 ... 0, 0, 0]"] ;
44 -> 46 ;
47 [label="gini = 0.0\nsamples = 1\nvalue = [0, 0, 0 ... 0, 0, 0]"] ;
46 -> 47 ;
48 [label="X[38] <= 4.15\ngini = 0.909\nsamples = 11\nvalue = [0, 0, 0 ... 0, 0, 0]"] ;
46 -> 48 ;
49 [label="gini = 0.0\nsamples = 1\nvalue = [0, 0, 0 ... 0, 0, 0]"] ;
48 -> 49 ;
50 [label="X[38] <= 4.25\ngini = 0.9\nsamples = 10\nvalue = [0, 0, 0 ... 0, 0, 0]"] ;
48 -> 50 ;
51 [label="X[39] <= -3.65\ngini = 0.5\nsamples = 2\nvalue = [0, 0, 0 ... 0, 0, 0]"] ;
50 -> 51 ;
52 [label="gini = 0.0\nsamples = 1\nvalue = [0, 0, 0 ... 0, 0, 0]"] ;
51 -> 52 ;
53 [label="gini = 0.0\nsamples = 1\nvalue = [0, 0, 0 ... 0, 0, 0]"] ;
51 -> 53 ;
54 [label="X[38] <= 4.55\ngini = 0.875\nsamples = 8\nvalue = [0, 0, 0 ... 0, 0, 0]"] ;
50 -> 54 ;
55 [label="gini = 0.0\nsamples = 1\nvalue = [0, 0, 0 ... 0, 0, 0]"] ;
54 -> 55 ;
56 [label="X[4] <= 10.5\ngini = 0.857\nsamples = 7\nvalue = [0, 0, 0 ... 0, 0, 0]"] ;
54 -> 56 ;
57 [label="gini = 0.0\nsamples = 1\nvalue = [0, 0, 0 ... 0, 0, 0]"] ;
56 -> 57 ;
58 [label="X[0] <= 4394.5\ngini = 0.833\nsamples = 6\nvalue = [0, 0, 0 ... 0, 0, 0]"] ;
56 -> 58 ;
59 [label="gini = 0.0\nsamples = 1\nvalue = [0, 0, 0 ... 0, 0, 0]"] ;
58 -> 59 ;
60 [label="X[39] <= -6.85\ngini = 0.8\nsamples = 5\nvalue = [0, 0, 0 ... 0, 0, 0]"] ;
58 -> 60 ;
61 [label="gini = 0.0\nsamples = 1\nvalue = [0, 0, 0 ... 0, 0, 0]"] ;
60 -> 61 ;
62 [label="X[0] <= 4405.5\ngini = 0.75\nsamples = 4\nvalue = [0, 0, 0 ... 0, 0, 0]"] ;
60 -> 62 ;
63 [label="gini = 0.0\nsamples = 1\nvalue = [0, 0, 0 ... 0, 0, 0]"] ;
62 -> 63 ;
64 [label="X[0] <= 4414.5\ngini = 0.667\nsamples = 3\nvalue = [0, 0, 0 ... 0, 0, 0]"] ;
62 -> 64 ;
65 [label="gini = 0.0\nsamples = 1\nvalue = [0, 0, 0 ... 0, 0, 0]"] ;
64 -> 65 ;
66 [label="X[39] <= -3.95\ngini = 0.5\nsamples = 2\nvalue = [0, 0, 0 ... 0, 0, 0]"] ;
64 -> 66 ;
67 [label="gini = 0.0\nsamples = 1\nvalue = [0, 0, 0 ... 0, 0, 0]"] ;
66 -> 67 ;
68 [label="gini = 0.0\nsamples = 1\nvalue = [0, 0, 0 ... 0, 0, 0]"] ;
66 -> 68 ;
69 [label="X[31] <= 0.15\ngini = 0.75\nsamples = 4\nvalue = [0, 0, 0 ... 0, 0, 0]"] ;
17 -> 69 ;
70 [label="gini = 0.0\nsamples = 1\nvalue = [0, 0, 0 ... 0, 0, 0]"] ;
69 -> 70 ;
71 [label="X[31] <= 0.4\ngini = 0.667\nsamples = 3\nvalue = [0, 0, 0 ... 0, 0, 0]"] ;
69 -> 71 ;
72 [label="gini = 0.0\nsamples = 1\nvalue = [0, 0, 0 ... 0, 0, 0]"] ;
71 -> 72 ;
73 [label="X[38] <= 3.25\ngini = 0.5\nsamples = 2\nvalue = [0, 0, 0 ... 0, 0, 0]"] ;
71 -> 73 ;
74 [label="gini = 0.0\nsamples = 1\nvalue = [0, 0, 0 ... 0, 0, 0]"] ;
73 -> 74 ;
75 [label="gini = 0.0\nsamples = 1\nvalue = [0, 0, 0 ... 0, 0, 0]"] ;
73 -> 75 ;
76 [label="X[39] <= 22.55\ngini = 0.963\nsamples = 29\nvalue = [0, 0, 0 ... 0, 0, 0]"] ;
10 -> 76 ;
77 [label="X[0] <= 4601.5\ngini = 0.903\nsamples = 12\nvalue = [0, 0, 0 ... 0, 0, 0]"] ;
76 -> 77 ;
78 [label="X[39] <= -2.9\ngini = 0.844\nsamples = 8\nvalue = [0, 0, 0 ... 0, 0, 0]"] ;
77 -> 78 ;
79 [label="X[4] <= 49.0\ngini = 0.75\nsamples = 4\nvalue = [0, 0, 0 ... 0, 0, 0]"] ;
78 -> 79 ;
80 [label="gini = 0.0\nsamples = 1\nvalue = [0, 0, 0 ... 0, 0, 0]"] ;
79 -> 80 ;
81 [label="X[4] <= 53.0\ngini = 0.667\nsamples = 3\nvalue = [0, 0, 0 ... 0, 0, 0]"] ;
79 -> 81 ;
82 [label="gini = 0.0\nsamples = 1\nvalue = [0, 0, 0 ... 0, 0, 0]"] ;
81 -> 82 ;
83 [label="X[0] <= 4433.5\ngini = 0.5\nsamples = 2\nvalue = [0, 0, 0 ... 0, 0, 0]"] ;
81 -> 83 ;
84 [label="gini = 0.0\nsamples = 1\nvalue = [0, 0, 0 ... 0, 0, 0]"] ;
83 -> 84 ;
85 [label="gini = 0.0\nsamples = 1\nvalue = [0, 0, 0 ... 0, 0, 0]"] ;
83 -> 85 ;
86 [label="X[32] <= 0.5\ngini = 0.625\nsamples = 4\nvalue = [0, 0, 0 ... 0, 0, 0]"] ;
78 -> 86 ;
87 [label="X[38] <= 10.05\ngini = 0.667\nsamples = 3\nvalue = [0, 0, 0 ... 0, 0, 0]"] ;
86 -> 87 ;
88 [label="gini = 0.0\nsamples = 1\nvalue = [0, 0, 0 ... 0, 0, 0]"] ;
87 -> 88 ;
89 [label="X[4] <= 58.5\ngini = 0.5\nsamples = 2\nvalue = [0, 0, 0 ... 0, 0, 0]"] ;
87 -> 89 ;
90 [label="gini = 0.0\nsamples = 1\nvalue = [0, 0, 0 ... 0, 0, 0]"] ;
89 -> 90 ;
91 [label="gini = 0.0\nsamples = 1\nvalue = [0, 0, 0 ... 0, 0, 0]"] ;
89 -> 91 ;
92 [label="gini = 0.0\nsamples = 1\nvalue = [0, 0, 0 ... 0, 0, 0]"] ;
86 -> 92 ;
93 [label="X[4] <= 239.0\ngini = 0.75\nsamples = 4\nvalue = [0, 0, 0 ... 0, 0, 0]"] ;
77 -> 93 ;
94 [label="gini = 0.0\nsamples = 1\nvalue = [0, 0, 0 ... 0, 0, 0]"] ;
93 -> 94 ;
95 [label="X[4] <= 241.5\ngini = 0.667\nsamples = 3\nvalue = [0, 0, 0 ... 0, 0, 0]"] ;
93 -> 95 ;
96 [label="gini = 0.0\nsamples = 1\nvalue = [0, 0, 0 ... 0, 0, 0]"] ;
95 -> 96 ;
97 [label="X[31] <= 0.25\ngini = 0.5\nsamples = 2\nvalue = [0, 0, 0 ... 0, 0, 0]"] ;
95 -> 97 ;
98 [label="gini = 0.0\nsamples = 1\nvalue = [0, 0, 0 ... 0, 0, 0]"] ;
97 -> 98 ;
99 [label="gini = 0.0\nsamples = 1\nvalue = [0, 0, 0 ... 0, 0, 0]"] ;
97 -> 99 ;
100 [label="X[38] <= 30.55\ngini = 0.941\nsamples = 17\nvalue = [0, 0, 0 ... 0, 0, 0]"] ;
76 -> 100 ;
101 [label="gini = 0.0\nsamples = 1\nvalue = [0, 0, 0 ... 0, 0, 0]"] ;
100 -> 101 ;
102 [label="X[0] <= 4568.0\ngini = 0.938\nsamples = 16\nvalue = [0, 0, 0 ... 0, 0, 0]"] ;
100 -> 102 ;
103 [label="gini = 0.0\nsamples = 1\nvalue = [0, 0, 0 ... 0, 0, 0]"] ;
102 -> 103 ;
104 [label="X[31] <= 0.35\ngini = 0.933\nsamples = 15\nvalue = [0, 0, 0 ... 0, 0, 0]"] ;
102 -> 104 ;
105 [label="X[32] <= 0.5\ngini = 0.917\nsamples = 12\nvalue = [0, 0, 0 ... 0, 0, 0]"] ;
104 -> 105 ;
106 [label="X[39] <= 24.2\ngini = 0.833\nsamples = 6\nvalue = [0, 0, 0 ... 0, 0, 0]"] ;
105 -> 106 ;
107 [label="gini = 0.0\nsamples = 1\nvalue = [0, 0, 0 ... 0, 0, 0]"] ;
106 -> 107 ;
108 [label="X[4] <= 214.5\ngini = 0.8\nsamples = 5\nvalue = [0, 0, 0 ... 0, 0, 0]"] ;
106 -> 108 ;
109 [label="gini = 0.0\nsamples = 1\nvalue = [0, 0, 0 ... 0, 0, 0]"] ;
108 -> 109 ;
110 [label="X[39] <= 24.4\ngini = 0.75\nsamples = 4\nvalue = [0, 0, 0 ... 0, 0, 0]"] ;
108 -> 110 ;
111 [label="gini = 0.0\nsamples = 1\nvalue = [0, 0, 0 ... 0, 0, 0]"] ;
110 -> 111 ;
112 [label="X[38] <= 33.05\ngini = 0.667\nsamples = 3\nvalue = [0, 0, 0 ... 0, 0, 0]"] ;
110 -> 112 ;
113 [label="gini = 0.0\nsamples = 1\nvalue = [0, 0, 0 ... 0, 0, 0]"] ;
112 -> 113 ;
114 [label="X[38] <= 34.3\ngini = 0.5\nsamples = 2\nvalue = [0, 0, 0 ... 0, 0, 0]"] ;
112 -> 114 ;
115 [label="gini = 0.0\nsamples = 1\nvalue = [0, 0, 0 ... 0, 0, 0]"] ;
114 -> 115 ;
116 [label="gini = 0.0\nsamples = 1\nvalue = [0, 0, 0 ... 0, 0, 0]"] ;
114 -> 116 ;
117 [label="X[4] <= 193.5\ngini = 0.833\nsamples = 6\nvalue = [0, 0, 0 ... 0, 0, 0]"] ;
105 -> 117 ;
118 [label="gini = 0.0\nsamples = 1\nvalue = [0, 0, 0 ... 0, 0, 0]"] ;
117 -> 118 ;
119 [label="X[0] <= 4576.0\ngini = 0.8\nsamples = 5\nvalue = [0, 0, 0 ... 0, 0, 0]"] ;
117 -> 119 ;
120 [label="gini = 0.0\nsamples = 1\nvalue = [0, 0, 0 ... 0, 0, 0]"] ;
119 -> 120 ;
121 [label="X[4] <= 200.5\ngini = 0.75\nsamples = 4\nvalue = [0, 0, 0 ... 0, 0, 0]"] ;
119 -> 121 ;
122 [label="gini = 0.0\nsamples = 1\nvalue = [0, 0, 0 ... 0, 0, 0]"] ;
121 -> 122 ;
123 [label="X[4] <= 201.5\ngini = 0.667\nsamples = 3\nvalue = [0, 0, 0 ... 0, 0, 0]"] ;
121 -> 123 ;
124 [label="gini = 0.0\nsamples = 1\nvalue = [0, 0, 0 ... 0, 0, 0]"] ;
123 -> 124 ;
125 [label="X[4] <= 204.5\ngini = 0.5\nsamples = 2\nvalue = [0, 0, 0 ... 0, 0, 0]"] ;
123 -> 125 ;
126 [label="gini = 0.0\nsamples = 1\nvalue = [0, 0, 0 ... 0, 0, 0]"] ;
125 -> 126 ;
127 [label="gini = 0.0\nsamples = 1\nvalue = [0, 0, 0 ... 0, 0, 0]"] ;
125 -> 127 ;
128 [label="X[38] <= 30.85\ngini = 0.667\nsamples = 3\nvalue = [0, 0, 0 ... 0, 0, 0]"] ;
104 -> 128 ;
129 [label="gini = 0.0\nsamples = 1\nvalue = [0, 0, 0 ... 0, 0, 0]"] ;
128 -> 129 ;
130 [label="X[31] <= 0.75\ngini = 0.5\nsamples = 2\nvalue = [0, 0, 0 ... 0, 0, 0]"] ;
128 -> 130 ;
131 [label="gini = 0.0\nsamples = 1\nvalue = [0, 0, 0 ... 0, 0, 0]"] ;
130 -> 131 ;
132 [label="gini = 0.0\nsamples = 1\nvalue = [0, 0, 0 ... 0, 0, 0]"] ;
130 -> 132 ;
133 [label="X[31] <= 3.5\ngini = 0.963\nsamples = 29\nvalue = [0, 0, 0 ... 0, 0, 0]"] ;
9 -> 133 ;
134 [label="X[0] <= 4593.0\ngini = 0.88\nsamples = 10\nvalue = [0, 0, 0 ... 0, 0, 0]"] ;
133 -> 134 ;
135 [label="X[39] <= 23.2\ngini = 0.778\nsamples = 6\nvalue = [0, 0, 0 ... 0, 0, 0]"] ;
134 -> 135 ;
136 [label="X[32] <= 0.5\ngini = 0.625\nsamples = 4\nvalue = [0, 0, 0 ... 0, 0, 0]"] ;
135 -> 136 ;
137 [label="X[38] <= 5.65\ngini = 0.667\nsamples = 3\nvalue = [0, 0, 0 ... 0, 0, 0]"] ;
136 -> 137 ;
138 [label="gini = 0.0\nsamples = 1\nvalue = [0, 0, 0 ... 0, 0, 0]"] ;
137 -> 138 ;
139 [label="X[39] <= -3.05\ngini = 0.5\nsamples = 2\nvalue = [0, 0, 0 ... 0, 0, 0]"] ;
137 -> 139 ;
140 [label="gini = 0.0\nsamples = 1\nvalue = [0, 0, 0 ... 0, 0, 0]"] ;
139 -> 140 ;
141 [label="gini = 0.0\nsamples = 1\nvalue = [0, 0, 0 ... 0, 0, 0]"] ;
139 -> 141 ;
142 [label="gini = 0.0\nsamples = 1\nvalue = [0, 0, 0 ... 0, 0, 0]"] ;
136 -> 142 ;
143 [label="X[38] <= 31.75\ngini = 0.5\nsamples = 2\nvalue = [0, 0, 0 ... 0, 0, 0]"] ;
135 -> 143 ;
144 [label="gini = 0.0\nsamples = 1\nvalue = [0, 0, 0 ... 0, 0, 0]"] ;
143 -> 144 ;
145 [label="gini = 0.0\nsamples = 1\nvalue = [0, 0, 0 ... 0, 0, 0]"] ;
143 -> 145 ;
146 [label="X[4] <= 9.5\ngini = 0.75\nsamples = 4\nvalue = [0, 0, 0 ... 0, 0, 0]"] ;
134 -> 146 ;
147 [label="gini = 0.0\nsamples = 1\nvalue = [0, 0, 0 ... 0, 0, 0]"] ;
146 -> 147 ;
148 [label="X[0] <= 4611.0\ngini = 0.667\nsamples = 3\nvalue = [0, 0, 0 ... 0, 0, 0]"] ;
146 -> 148 ;
149 [label="gini = 0.0\nsamples = 1\nvalue = [0, 0, 0 ... 0, 0, 0]"] ;
148 -> 149 ;
150 [label="X[39] <= 8.35\ngini = 0.5\nsamples = 2\nvalue = [0, 0, 0 ... 0, 0, 0]"] ;
148 -> 150 ;
151 [label="gini = 0.0\nsamples = 1\nvalue = [0, 0, 0 ... 0, 0, 0]"] ;
150 -> 151 ;
152 [label="gini = 0.0\nsamples = 1\nvalue = [0, 0, 0 ... 0, 0, 0]"] ;
150 -> 152 ;
153 [label="X[32] <= 0.5\ngini = 0.947\nsamples = 19\nvalue = [0, 0, 0 ... 0, 0, 0]"] ;
133 -> 153 ;
154 [label="X[33] <= 1.45\ngini = 0.917\nsamples = 12\nvalue = [0, 0, 0 ... 0, 0, 0]"] ;
153 -> 154 ;
155 [label="X[4] <= 52.0\ngini = 0.909\nsamples = 11\nvalue = [0, 0, 0 ... 0, 0, 0]"] ;
154 -> 155 ;
156 [label="gini = 0.0\nsamples = 1\nvalue = [0, 0, 0 ... 0, 0, 0]"] ;
155 -> 156 ;
157 [label="X[4] <= 132.5\ngini = 0.9\nsamples = 10\nvalue = [0, 0, 0 ... 0, 0, 0]"] ;
155 -> 157 ;
158 [label="gini = 0.0\nsamples = 1\nvalue = [0, 0, 0 ... 0, 0, 0]"] ;
157 -> 158 ;
159 [label="X[38] <= 26.3\ngini = 0.889\nsamples = 9\nvalue = [0, 0, 0 ... 0, 0, 0]"] ;
157 -> 159 ;
160 [label="gini = 0.0\nsamples = 1\nvalue = [0, 0, 0 ... 0, 0, 0]"] ;
159 -> 160 ;
161 [label="X[31] <= 4.0\ngini = 0.875\nsamples = 8\nvalue = [0, 0, 0 ... 0, 0, 0]"] ;
159 -> 161 ;
162 [label="gini = 0.0\nsamples = 1\nvalue = [0, 0, 0 ... 0, 0, 0]"] ;
161 -> 162 ;
163 [label="X[31] <= 6.7\ngini = 0.857\nsamples = 7\nvalue = [0, 0, 0 ... 0, 0, 0]"] ;
161 -> 163 ;
164 [label="gini = 0.0\nsamples = 1\nvalue = [0, 0, 0 ... 0, 0, 0]"] ;
163 -> 164 ;
165 [label="X[31] <= 19.2\ngini = 0.833\nsamples = 6\nvalue = [0, 0, 0 ... 0, 0, 0]"] ;
163 -> 165 ;
166 [label="gini = 0.0\nsamples = 1\nvalue = [0, 0, 0 ... 0, 0, 0]"] ;
165 -> 166 ;
167 [label="X[39] <= 21.0\ngini = 0.8\nsamples = 5\nvalue = [0, 0, 0 ... 0, 0, 0]"] ;
165 -> 167 ;
168 [label="gini = 0.0\nsamples = 1\nvalue = [0, 0, 0 ... 0, 0, 0]"] ;
167 -> 168 ;
169 [label="X[38] <= 27.35\ngini = 0.75\nsamples = 4\nvalue = [0, 0, 0 ... 0, 0, 0]"] ;
167 -> 169 ;
170 [label="gini = 0.0\nsamples = 1\nvalue = [0, 0, 0 ... 0, 0, 0]"] ;
169 -> 170 ;
171 [label="X[4] <= 227.0\ngini = 0.667\nsamples = 3\nvalue = [0, 0, 0 ... 0, 0, 0]"] ;
169 -> 171 ;
172 [label="gini = 0.0\nsamples = 1\nvalue = [0, 0, 0 ... 0, 0, 0]"] ;
171 -> 172 ;
173 [label="X[4] <= 234.5\ngini = 0.5\nsamples = 2\nvalue = [0, 0, 0 ... 0, 0, 0]"] ;
171 -> 173 ;
174 [label="gini = 0.0\nsamples = 1\nvalue = [0, 0, 0 ... 0, 0, 0]"] ;
173 -> 174 ;
175 [label="gini = 0.0\nsamples = 1\nvalue = [0, 0, 0 ... 0, 0, 0]"] ;
173 -> 175 ;
176 [label="gini = 0.0\nsamples = 1\nvalue = [0, 0, 0 ... 0, 0, 0]"] ;
154 -> 176 ;
177 [label="X[39] <= 23.15\ngini = 0.857\nsamples = 7\nvalue = [0, 0, 0 ... 0, 0, 0]"] ;
153 -> 177 ;
178 [label="gini = 0.0\nsamples = 1\nvalue = [0, 0, 0 ... 0, 0, 0]"] ;
177 -> 178 ;
179 [label="X[4] <= 184.5\ngini = 0.833\nsamples = 6\nvalue = [0, 0, 0 ... 0, 0, 0]"] ;
177 -> 179 ;
180 [label="gini = 0.0\nsamples = 1\nvalue = [0, 0, 0 ... 0, 0, 0]"] ;
179 -> 180 ;
181 [label="X[39] <= 23.4\ngini = 0.8\nsamples = 5\nvalue = [0, 0, 0 ... 0, 0, 0]"] ;
179 -> 181 ;
182 [label="gini = 0.0\nsamples = 1\nvalue = [0, 0, 0 ... 0, 0, 0]"] ;
181 -> 182 ;
183 [label="X[38] <= 30.1\ngini = 0.75\nsamples = 4\nvalue = [0, 0, 0 ... 0, 0, 0]"] ;
181 -> 183 ;
184 [label="gini = 0.0\nsamples = 1\nvalue = [0, 0, 0 ... 0, 0, 0]"] ;
183 -> 184 ;
185 [label="X[4] <= 196.5\ngini = 0.667\nsamples = 3\nvalue = [0, 0, 0 ... 0, 0, 0]"] ;
183 -> 185 ;
186 [label="gini = 0.0\nsamples = 1\nvalue = [0, 0, 0 ... 0, 0, 0]"] ;
185 -> 186 ;
187 [label="X[0] <= 4586.5\ngini = 0.5\nsamples = 2\nvalue = [0, 0, 0 ... 0, 0, 0]"] ;
185 -> 187 ;
188 [label="gini = 0.0\nsamples = 1\nvalue = [0, 0, 0 ... 0, 0, 0]"] ;
187 -> 188 ;
189 [label="gini = 0.0\nsamples = 1\nvalue = [0, 0, 0 ... 0, 0, 0]"] ;
187 -> 189 ;
190 [label="X[31] <= 1.0\ngini = 0.984\nsamples = 76\nvalue = [0, 0, 0 ... 0, 0, 0]"] ;
8 -> 190 ;
191 [label="X[39] <= -13.8\ngini = 0.979\nsamples = 61\nvalue = [0, 0, 0 ... 0, 0, 0]"] ;
190 -> 191 ;
192 [label="X[0] <= 4768.5\ngini = 0.75\nsamples = 4\nvalue = [0, 0, 0 ... 0, 0, 0]"] ;
191 -> 192 ;
193 [label="gini = 0.0\nsamples = 1\nvalue = [0, 0, 0 ... 0, 0, 0]"] ;
192 -> 193 ;
194 [label="X[39] <= -16.25\ngini = 0.667\nsamples = 3\nvalue = [0, 0, 0 ... 0, 0, 0]"] ;
192 -> 194 ;
195 [label="gini = 0.0\nsamples = 1\nvalue = [0, 0, 0 ... 0, 0, 0]"] ;
194 -> 195 ;
196 [label="X[4] <= 32.0\ngini = 0.5\nsamples = 2\nvalue = [0, 0, 0 ... 0, 0, 0]"] ;
194 -> 196 ;
197 [label="gini = 0.0\nsamples = 1\nvalue = [0, 0, 0 ... 0, 0, 0]"] ;
196 -> 197 ;
198 [label="gini = 0.0\nsamples = 1\nvalue = [0, 0, 0 ... 0, 0, 0]"] ;
196 -> 198 ;
199 [label="X[39] <= 27.55\ngini = 0.977\nsamples = 57\nvalue = [0, 0, 0 ... 0, 0, 0]"] ;
191 -> 199 ;
200 [label="X[0] <= 4977.5\ngini = 0.975\nsamples = 54\nvalue = [0, 0, 0 ... 0, 0, 0]"] ;
199 -> 200 ;
201 [label="X[39] <= -6.65\ngini = 0.974\nsamples = 52\nvalue = [0, 0, 0 ... 0, 0, 0]"] ;
200 -> 201 ;
202 [label="X[4] <= 38.0\ngini = 0.88\nsamples = 10\nvalue = [0, 0, 0 ... 0, 0, 0]"] ;
201 -> 202 ;
203 [label="X[0] <= 4761.5\ngini = 0.857\nsamples = 7\nvalue = [0, 0, 0 ... 0, 0, 0]"] ;
202 -> 203 ;
204 [label="gini = 0.0\nsamples = 1\nvalue = [0, 0, 0 ... 0, 0, 0]"] ;
203 -> 204 ;
205 [label="X[33] <= 0.3\ngini = 0.833\nsamples = 6\nvalue = [0, 0, 0 ... 0, 0, 0]"] ;
203 -> 205 ;
206 [label="X[4] <= 26.0\ngini = 0.8\nsamples = 5\nvalue = [0, 0, 0 ... 0, 0, 0]"] ;
205 -> 206 ;
207 [label="gini = 0.0\nsamples = 1\nvalue = [0, 0, 0 ... 0, 0, 0]"] ;
206 -> 207 ;
208 [label="X[4] <= 29.5\ngini = 0.75\nsamples = 4\nvalue = [0, 0, 0 ... 0, 0, 0]"] ;
206 -> 208 ;
209 [label="gini = 0.0\nsamples = 1\nvalue = [0, 0, 0 ... 0, 0, 0]"] ;
208 -> 209 ;
210 [label="X[38] <= -0.35\ngini = 0.667\nsamples = 3\nvalue = [0, 0, 0 ... 0, 0, 0]"] ;
208 -> 210 ;
211 [label="gini = 0.0\nsamples = 1\nvalue = [0, 0, 0 ... 0, 0, 0]"] ;
210 -> 211 ;
212 [label="X[0] <= 4775.5\ngini = 0.5\nsamples = 2\nvalue = [0, 0, 0 ... 0, 0, 0]"] ;
210 -> 212 ;
213 [label="gini = 0.0\nsamples = 1\nvalue = [0, 0, 0 ... 0, 0, 0]"] ;
212 -> 213 ;
214 [label="gini = 0.0\nsamples = 1\nvalue = [0, 0, 0 ... 0, 0, 0]"] ;
212 -> 214 ;
215 [label="gini = 0.0\nsamples = 1\nvalue = [0, 0, 0 ... 0, 0, 0]"] ;
205 -> 215 ;
216 [label="X[4] <= 48.5\ngini = 0.444\nsamples = 3\nvalue = [0, 0, 0 ... 0, 0, 0]"] ;
202 -> 216 ;
217 [label="gini = 0.0\nsamples = 2\nvalue = [0, 0, 0 ... 0, 0, 0]"] ;
216 -> 217 ;
218 [label="gini = 0.0\nsamples = 1\nvalue = [0, 0, 0 ... 0, 0, 0]"] ;
216 -> 218 ;
219 [label="X[38] <= 8.9\ngini = 0.973\nsamples = 42\nvalue = [0, 0, 0 ... 0, 0, 0]"] ;
201 -> 219 ;
220 [label="X[0] <= 4762.5\ngini = 0.875\nsamples = 8\nvalue = [0, 0, 0 ... 0, 0, 0]"] ;
219 -> 220 ;
221 [label="gini = 0.0\nsamples = 1\nvalue = [0, 0, 0 ... 0, 0, 0]"] ;
220 -> 221 ;
222 [label="X[0] <= 4764.5\ngini = 0.857\nsamples = 7\nvalue = [0, 0, 0 ... 0, 0, 0]"] ;
220 -> 222 ;
223 [label="gini = 0.0\nsamples = 1\nvalue = [0, 0, 0 ... 0, 0, 0]"] ;
222 -> 223 ;
224 [label="X[39] <= -5.2\ngini = 0.833\nsamples = 6\nvalue = [0, 0, 0 ... 0, 0, 0]"] ;
222 -> 224 ;
225 [label="gini = 0.0\nsamples = 1\nvalue = [0, 0, 0 ... 0, 0, 0]"] ;
224 -> 225 ;
226 [label="X[4] <= 26.5\ngini = 0.8\nsamples = 5\nvalue = [0, 0, 0 ... 0, 0, 0]"] ;
224 -> 226 ;
227 [label="gini = 0.0\nsamples = 1\nvalue = [0, 0, 0 ... 0, 0, 0]"] ;
226 -> 227 ;
228 [label="X[39] <= -3.6\ngini = 0.75\nsamples = 4\nvalue = [0, 0, 0 ... 0, 0, 0]"] ;
226 -> 228 ;
229 [label="gini = 0.0\nsamples = 1\nvalue = [0, 0, 0 ... 0, 0, 0]"] ;
228 -> 229 ;
230 [label="X[38] <= 5.95\ngini = 0.667\nsamples = 3\nvalue = [0, 0, 0 ... 0, 0, 0]"] ;
228 -> 230 ;
231 [label="gini = 0.0\nsamples = 1\nvalue = [0, 0, 0 ... 0, 0, 0]"] ;
230 -> 231 ;
232 [label="X[38] <= 8.45\ngini = 0.5\nsamples = 2\nvalue = [0, 0, 0 ... 0, 0, 0]"] ;
230 -> 232 ;
233 [label="gini = 0.0\nsamples = 1\nvalue = [0, 0, 0 ... 0, 0, 0]"] ;
232 -> 233 ;
234 [label="gini = 0.0\nsamples = 1\nvalue = [0, 0, 0 ... 0, 0, 0]"] ;
232 -> 234 ;
235 [label="X[31] <= 0.1\ngini = 0.965\nsamples = 34\nvalue = [0, 0, 0 ... 0, 0, 0]"] ;
219 -> 235 ;
236 [label="X[0] <= 4771.5\ngini = 0.964\nsamples = 33\nvalue = [0, 0, 0 ... 0, 0, 0]"] ;
235 -> 236 ;
237 [label="gini = 0.0\nsamples = 1\nvalue = [0, 0, 0 ... 0, 0, 0]"] ;
236 -> 237 ;
238 [label="X[39] <= 26.4\ngini = 0.963\nsamples = 32\nvalue = [0, 0, 0 ... 0, 0, 0]"] ;
236 -> 238 ;
239 [label="X[0] <= 4953.5\ngini = 0.954\nsamples = 25\nvalue = [0, 0, 0 ... 0, 0, 0]"] ;
238 -> 239 ;
240 [label="X[4] <= 42.5\ngini = 0.941\nsamples = 17\nvalue = [0, 0, 0 ... 0, 0, 0]"] ;
239 -> 240 ;
241 [label="gini = 0.0\nsamples = 1\nvalue = [0, 0, 0 ... 0, 0, 0]"] ;
240 -> 241 ;
242 [label="X[38] <= 12.3\ngini = 0.938\nsamples = 16\nvalue = [0, 0, 0 ... 0, 0, 0]"] ;
240 -> 242 ;
243 [label="gini = 0.0\nsamples = 1\nvalue = [0, 0, 0 ... 0, 0, 0]"] ;
242 -> 243 ;
244 [label="X[38] <= 13.05\ngini = 0.933\nsamples = 15\nvalue = [0, 0, 0 ... 0, 0, 0]"] ;
242 -> 244 ;
245 [label="gini = 0.0\nsamples = 1\nvalue = [0, 0, 0 ... 0, 0, 0]"] ;
244 -> 245 ;
246 [label="X[0] <= 4865.0\ngini = 0.929\nsamples = 14\nvalue = [0, 0, 0 ... 0, 0, 0]"] ;
244 -> 246 ;
247 [label="gini = 0.0\nsamples = 1\nvalue = [0, 0, 0 ... 0, 0, 0]"] ;
246 -> 247 ;
248 [label="X[4] <= 184.5\ngini = 0.923\nsamples = 13\nvalue = [0, 0, 0 ... 0, 0, 0]"] ;
246 -> 248 ;
249 [label="gini = 0.0\nsamples = 1\nvalue = [0, 0, 0 ... 0, 0, 0]"] ;
248 -> 249 ;
250 [label="X[0] <= 4932.0\ngini = 0.917\nsamples = 12\nvalue = [0, 0, 0 ... 0, 0, 0]"] ;
248 -> 250 ;
251 [label="gini = 0.0\nsamples = 1\nvalue = [0, 0, 0 ... 0, 0, 0]"] ;
250 -> 251 ;
252 [label="X[39] <= 22.1\ngini = 0.909\nsamples = 11\nvalue = [0, 0, 0 ... 0, 0, 0]"] ;
250 -> 252 ;
253 [label="gini = 0.0\nsamples = 1\nvalue = [0, 0, 0 ... 0, 0, 0]"] ;
252 -> 253 ;
254 [label="X[38] <= 32.7\ngini = 0.9\nsamples = 10\nvalue = [0, 0, 0 ... 0, 0, 0]"] ;
252 -> 254 ;
255 [label="gini = 0.0\nsamples = 1\nvalue = [0, 0, 0 ... 0, 0, 0]"] ;
254 -> 255 ;
256 [label="X[0] <= 4939.0\ngini = 0.889\nsamples = 9\nvalue = [0, 0, 0 ... 0, 0, 0]"] ;
254 -> 256 ;
257 [label="gini = 0.0\nsamples = 1\nvalue = [0, 0, 0 ... 0, 0, 0]"] ;
256 -> 257 ;
258 [label="X[4] <= 197.5\ngini = 0.875\nsamples = 8\nvalue = [0, 0, 0 ... 0, 0, 0]"] ;
256 -> 258 ;
259 [label="gini = 0.0\nsamples = 1\nvalue = [0, 0, 0 ... 0, 0, 0]"] ;
258 -> 259 ;
260 [label="X[38] <= 33.25\ngini = 0.857\nsamples = 7\nvalue = [0, 0, 0 ... 0, 0, 0]"] ;
258 -> 260 ;
261 [label="gini = 0.0\nsamples = 1\nvalue = [0, 0, 0 ... 0, 0, 0]"] ;
260 -> 261 ;
262 [label="X[0] <= 4943.0\ngini = 0.833\nsamples = 6\nvalue = [0, 0, 0 ... 0, 0, 0]"] ;
260 -> 262 ;
263 [label="gini = 0.0\nsamples = 1\nvalue = [0, 0, 0 ... 0, 0, 0]"] ;
262 -> 263 ;
264 [label="X[4] <= 200.5\ngini = 0.8\nsamples = 5\nvalue = [0, 0, 0 ... 0, 0, 0]"] ;
262 -> 264 ;
265 [label="gini = 0.0\nsamples = 1\nvalue = [0, 0, 0 ... 0, 0, 0]"] ;
264 -> 265 ;
266 [label="X[39] <= 24.95\ngini = 0.75\nsamples = 4\nvalue = [0, 0, 0 ... 0, 0, 0]"] ;
264 -> 266 ;
267 [label="gini = 0.0\nsamples = 1\nvalue = [0, 0, 0 ... 0, 0, 0]"] ;
266 -> 267 ;
268 [label="X[0] <= 4950.0\ngini = 0.667\nsamples = 3\nvalue = [0, 0, 0 ... 0, 0, 0]"] ;
266 -> 268 ;
269 [label="gini = 0.0\nsamples = 1\nvalue = [0, 0, 0 ... 0, 0, 0]"] ;
268 -> 269 ;
270 [label="X[38] <= 36.4\ngini = 0.5\nsamples = 2\nvalue = [0, 0, 0 ... 0, 0, 0]"] ;
268 -> 270 ;
271 [label="gini = 0.0\nsamples = 1\nvalue = [0, 0, 0 ... 0, 0, 0]"] ;
270 -> 271 ;
272 [label="gini = 0.0\nsamples = 1\nvalue = [0, 0, 0 ... 0, 0, 0]"] ;
270 -> 272 ;
273 [label="X[38] <= 36.3\ngini = 0.844\nsamples = 8\nvalue = [0, 0, 0 ... 0, 0, 0]"] ;
239 -> 273 ;
274 [label="X[39] <= 25.0\ngini = 0.625\nsamples = 4\nvalue = [0, 0, 0 ... 0, 0, 0]"] ;
273 -> 274 ;
275 [label="X[39] <= 23.7\ngini = 0.5\nsamples = 2\nvalue = [0, 0, 0 ... 0, 0, 0]"] ;
274 -> 275 ;
276 [label="gini = 0.0\nsamples = 1\nvalue = [0, 0, 0 ... 0, 0, 0]"] ;
275 -> 276 ;
277 [label="gini = 0.0\nsamples = 1\nvalue = [0, 0, 0 ... 0, 0, 0]"] ;
275 -> 277 ;
278 [label="gini = 0.0\nsamples = 2\nvalue = [0, 0, 0 ... 0, 0, 0]"] ;
274 -> 278 ;
279 [label="X[38] <= 37.0\ngini = 0.75\nsamples = 4\nvalue = [0, 0, 0 ... 0, 0, 0]"] ;
273 -> 279 ;
280 [label="gini = 0.0\nsamples = 1\nvalue = [0, 0, 0 ... 0, 0, 0]"] ;
279 -> 280 ;
281 [label="X[39] <= 25.8\ngini = 0.667\nsamples = 3\nvalue = [0, 0, 0 ... 0, 0, 0]"] ;
279 -> 281 ;
282 [label="gini = 0.0\nsamples = 1\nvalue = [0, 0, 0 ... 0, 0, 0]"] ;
281 -> 282 ;
283 [label="X[4] <= 219.0\ngini = 0.5\nsamples = 2\nvalue = [0, 0, 0 ... 0, 0, 0]"] ;
281 -> 283 ;
284 [label="gini = 0.0\nsamples = 1\nvalue = [0, 0, 0 ... 0, 0, 0]"] ;
283 -> 284 ;
285 [label="gini = 0.0\nsamples = 1\nvalue = [0, 0, 0 ... 0, 0, 0]"] ;
283 -> 285 ;
286 [label="X[38] <= 34.85\ngini = 0.857\nsamples = 7\nvalue = [0, 0, 0 ... 0, 0, 0]"] ;
238 -> 286 ;
287 [label="gini = 0.0\nsamples = 1\nvalue = [0, 0, 0 ... 0, 0, 0]"] ;
286 -> 287 ;
288 [label="X[4] <= 209.5\ngini = 0.833\nsamples = 6\nvalue = [0, 0, 0 ... 0, 0, 0]"] ;
286 -> 288 ;
289 [label="gini = 0.0\nsamples = 1\nvalue = [0, 0, 0 ... 0, 0, 0]"] ;
288 -> 289 ;
290 [label="X[39] <= 26.8\ngini = 0.8\nsamples = 5\nvalue = [0, 0, 0 ... 0, 0, 0]"] ;
288 -> 290 ;
291 [label="gini = 0.0\nsamples = 1\nvalue = [0, 0, 0 ... 0, 0, 0]"] ;
290 -> 291 ;
292 [label="X[39] <= 27.2\ngini = 0.75\nsamples = 4\nvalue = [0, 0, 0 ... 0, 0, 0]"] ;
290 -> 292 ;
293 [label="gini = 0.0\nsamples = 1\nvalue = [0, 0, 0 ... 0, 0, 0]"] ;
292 -> 293 ;
294 [label="X[0] <= 4962.5\ngini = 0.667\nsamples = 3\nvalue = [0, 0, 0 ... 0, 0, 0]"] ;
292 -> 294 ;
295 [label="gini = 0.0\nsamples = 1\nvalue = [0, 0, 0 ... 0, 0, 0]"] ;
294 -> 295 ;
296 [label="X[4] <= 224.0\ngini = 0.5\nsamples = 2\nvalue = [0, 0, 0 ... 0, 0, 0]"] ;
294 -> 296 ;
297 [label="gini = 0.0\nsamples = 1\nvalue = [0, 0, 0 ... 0, 0, 0]"] ;
296 -> 297 ;
298 [label="gini = 0.0\nsamples = 1\nvalue = [0, 0, 0 ... 0, 0, 0]"] ;
296 -> 298 ;
299 [label="gini = 0.0\nsamples = 1\nvalue = [0, 0, 0 ... 0, 0, 0]"] ;
235 -> 299 ;
300 [label="X[38] <= 35.45\ngini = 0.5\nsamples = 2\nvalue = [0, 0, 0 ... 0, 0, 0]"] ;
200 -> 300 ;
301 [label="gini = 0.0\nsamples = 1\nvalue = [0, 0, 0 ... 0, 0, 0]"] ;
300 -> 301 ;
302 [label="gini = 0.0\nsamples = 1\nvalue = [0, 0, 0 ... 0, 0, 0]"] ;
300 -> 302 ;
303 [label="X[0] <= 4960.5\ngini = 0.667\nsamples = 3\nvalue = [0, 0, 0 ... 0, 0, 0]"] ;
199 -> 303 ;
304 [label="gini = 0.0\nsamples = 1\nvalue = [0, 0, 0 ... 0, 0, 0]"] ;
303 -> 304 ;
305 [label="X[38] <= 36.55\ngini = 0.5\nsamples = 2\nvalue = [0, 0, 0 ... 0, 0, 0]"] ;
303 -> 305 ;
306 [label="gini = 0.0\nsamples = 1\nvalue = [0, 0, 0 ... 0, 0, 0]"] ;
305 -> 306 ;
307 [label="gini = 0.0\nsamples = 1\nvalue = [0, 0, 0 ... 0, 0, 0]"] ;
305 -> 307 ;
308 [label="X[38] <= 2.8\ngini = 0.933\nsamples = 15\nvalue = [0, 0, 0 ... 0, 0, 0]"] ;
190 -> 308 ;
309 [label="gini = 0.0\nsamples = 1\nvalue = [0, 0, 0 ... 0, 0, 0]"] ;
308 -> 309 ;
310 [label="X[38] <= 6.7\ngini = 0.929\nsamples = 14\nvalue = [0, 0, 0 ... 0, 0, 0]"] ;
308 -> 310 ;
311 [label="gini = 0.0\nsamples = 1\nvalue = [0, 0, 0 ... 0, 0, 0]"] ;
310 -> 311 ;
312 [label="X[38] <= 8.65\ngini = 0.923\nsamples = 13\nvalue = [0, 0, 0 ... 0, 0, 0]"] ;
310 -> 312 ;
313 [label="gini = 0.0\nsamples = 1\nvalue = [0, 0, 0 ... 0, 0, 0]"] ;
312 -> 313 ;
314 [label="X[32] <= 0.5\ngini = 0.917\nsamples = 12\nvalue = [0, 0, 0 ... 0, 0, 0]"] ;
312 -> 314 ;
315 [label="X[4] <= 56.5\ngini = 0.875\nsamples = 8\nvalue = [0, 0, 0 ... 0, 0, 0]"] ;
314 -> 315 ;
316 [label="gini = 0.0\nsamples = 1\nvalue = [0, 0, 0 ... 0, 0, 0]"] ;
315 -> 316 ;
317 [label="X[4] <= 147.0\ngini = 0.857\nsamples = 7\nvalue = [0, 0, 0 ... 0, 0, 0]"] ;
315 -> 317 ;
318 [label="gini = 0.0\nsamples = 1\nvalue = [0, 0, 0 ... 0, 0, 0]"] ;
317 -> 318 ;
319 [label="X[31] <= 10.7\ngini = 0.833\nsamples = 6\nvalue = [0, 0, 0 ... 0, 0, 0]"] ;
317 -> 319 ;
320 [label="gini = 0.0\nsamples = 1\nvalue = [0, 0, 0 ... 0, 0, 0]"] ;
319 -> 320 ;
321 [label="X[39] <= 19.95\ngini = 0.8\nsamples = 5\nvalue = [0, 0, 0 ... 0, 0, 0]"] ;
319 -> 321 ;
322 [label="gini = 0.0\nsamples = 1\nvalue = [0, 0, 0 ... 0, 0, 0]"] ;
321 -> 322 ;
323 [label="X[39] <= 22.05\ngini = 0.75\nsamples = 4\nvalue = [0, 0, 0 ... 0, 0, 0]"] ;
321 -> 323 ;
324 [label="gini = 0.0\nsamples = 1\nvalue = [0, 0, 0 ... 0, 0, 0]"] ;
323 -> 324 ;
325 [label="X[0] <= 4982.0\ngini = 0.667\nsamples = 3\nvalue = [0, 0, 0 ... 0, 0, 0]"] ;
323 -> 325 ;
326 [label="gini = 0.0\nsamples = 1\nvalue = [0, 0, 0 ... 0, 0, 0]"] ;
325 -> 326 ;
327 [label="X[38] <= 29.05\ngini = 0.5\nsamples = 2\nvalue = [0, 0, 0 ... 0, 0, 0]"] ;
325 -> 327 ;
328 [label="gini = 0.0\nsamples = 1\nvalue = [0, 0, 0 ... 0, 0, 0]"] ;
327 -> 328 ;
329 [label="gini = 0.0\nsamples = 1\nvalue = [0, 0, 0 ... 0, 0, 0]"] ;
327 -> 329 ;
330 [label="X[31] <= 13.1\ngini = 0.75\nsamples = 4\nvalue = [0, 0, 0 ... 0, 0, 0]"] ;
314 -> 330 ;
331 [label="gini = 0.0\nsamples = 1\nvalue = [0, 0, 0 ... 0, 0, 0]"] ;
330 -> 331 ;
332 [label="X[0] <= 4928.5\ngini = 0.667\nsamples = 3\nvalue = [0, 0, 0 ... 0, 0, 0]"] ;
330 -> 332 ;
333 [label="gini = 0.0\nsamples = 1\nvalue = [0, 0, 0 ... 0, 0, 0]"] ;
332 -> 333 ;
334 [label="X[38] <= 26.25\ngini = 0.5\nsamples = 2\nvalue = [0, 0, 0 ... 0, 0, 0]"] ;
332 -> 334 ;
335 [label="gini = 0.0\nsamples = 1\nvalue = [0, 0, 0 ... 0, 0, 0]"] ;
334 -> 335 ;
336 [label="gini = 0.0\nsamples = 1\nvalue = [0, 0, 0 ... 0, 0, 0]"] ;
334 -> 336 ;
337 [label="X[33] <= 0.25\ngini = 0.996\nsamples = 334\nvalue = [0, 0, 0 ... 0, 0, 0]"] ;
7 -> 337 ;
338 [label="X[31] <= 35.8\ngini = 0.996\nsamples = 318\nvalue = [0, 0, 0 ... 0, 0, 0]"] ;
337 -> 338 ;
339 [label="X[31] <= 3.45\ngini = 0.996\nsamples = 296\nvalue = [0, 0, 0 ... 0, 0, 0]"] ;
338 -> 339 ;
340 [label="X[4] <= 229.5\ngini = 0.995\nsamples = 260\nvalue = [0, 0, 0 ... 0, 0, 0]"] ;
339 -> 340 ;
341 [label="X[4] <= 23.5\ngini = 0.995\nsamples = 236\nvalue = [0, 0, 0 ... 0, 0, 0]"] ;
340 -> 341 ;
342 [label="X[39] <= -8.2\ngini = 0.979\nsamples = 54\nvalue = [0, 0, 0 ... 0, 0, 0]"] ;
341 -> 342 ;
343 [label="X[39] <= -10.05\ngini = 0.903\nsamples = 12\nvalue = [0, 0, 0 ... 0, 0, 0]"] ;
342 -> 343 ;
344 [label="X[13] <= 4.5\ngini = 0.875\nsamples = 8\nvalue = [0, 0, 0 ... 0, 0, 0]"] ;
343 -> 344 ;
345 [label="X[39] <= -13.15\ngini = 0.75\nsamples = 4\nvalue = [0, 0, 0 ... 0, 0, 0]"] ;
344 -> 345 ;
346 [label="gini = 0.0\nsamples = 1\nvalue = [0, 0, 0 ... 0, 0, 0]"] ;
345 -> 346 ;
347 [label="X[39] <= -12.0\ngini = 0.667\nsamples = 3\nvalue = [0, 0, 0 ... 0, 0, 0]"] ;
345 -> 347 ;
348 [label="gini = 0.0\nsamples = 1\nvalue = [0, 0, 0 ... 0, 0, 0]"] ;
347 -> 348 ;
349 [label="X[0] <= 5676.0\ngini = 0.5\nsamples = 2\nvalue = [0, 0, 0 ... 0, 0, 0]"] ;
347 -> 349 ;
350 [label="gini = 0.0\nsamples = 1\nvalue = [0, 0, 0 ... 0, 0, 0]"] ;
349 -> 350 ;
351 [label="gini = 0.0\nsamples = 1\nvalue = [0, 0, 0 ... 0, 0, 0]"] ;
349 -> 351 ;
352 [label="X[33] <= 0.05\ngini = 0.75\nsamples = 4\nvalue = [0, 0, 0 ... 0, 0, 0]"] ;
344 -> 352 ;
353 [label="X[39] <= -10.75\ngini = 0.5\nsamples = 2\nvalue = [0, 0, 0 ... 0, 0, 0]"] ;
352 -> 353 ;
354 [label="gini = 0.0\nsamples = 1\nvalue = [0, 0, 0 ... 0, 0, 0]"] ;
353 -> 354 ;
355 [label="gini = 0.0\nsamples = 1\nvalue = [0, 0, 0 ... 0, 0, 0]"] ;
353 -> 355 ;
356 [label="X[0] <= 3660.5\ngini = 0.5\nsamples = 2\nvalue = [0, 0, 0 ... 0, 0, 0]"] ;
352 -> 356 ;
357 [label="gini = 0.0\nsamples = 1\nvalue = [0, 0, 0 ... 0, 0, 0]"] ;
356 -> 357 ;
358 [label="gini = 0.0\nsamples = 1\nvalue = [0, 0, 0 ... 0, 0, 0]"] ;
356 -> 358 ;
359 [label="X[26] <= 0.5\ngini = 0.625\nsamples = 4\nvalue = [0, 0, 0 ... 0, 0, 0]"] ;
343 -> 359 ;
360 [label="X[0] <= 5494.0\ngini = 0.5\nsamples = 2\nvalue = [0, 0, 0 ... 0, 0, 0]"] ;
359 -> 360 ;
361 [label="gini = 0.0\nsamples = 1\nvalue = [0, 0, 0 ... 0, 0, 0]"] ;
360 -> 361 ;
362 [label="gini = 0.0\nsamples = 1\nvalue = [0, 0, 0 ... 0, 0, 0]"] ;
360 -> 362 ;
363 [label="X[4] <= 20.0\ngini = 0.5\nsamples = 2\nvalue = [0, 0, 0 ... 0, 0, 0]"] ;
359 -> 363 ;
364 [label="gini = 0.0\nsamples = 1\nvalue = [0, 0, 0 ... 0, 0, 0]"] ;
363 -> 364 ;
365 [label="gini = 0.0\nsamples = 1\nvalue = [0, 0, 0 ... 0, 0, 0]"] ;
363 -> 365 ;
366 [label="X[4] <= 15.5\ngini = 0.974\nsamples = 42\nvalue = [0, 0, 0 ... 0, 0, 0]"] ;
342 -> 366 ;
367 [label="X[4] <= 9.5\ngini = 0.964\nsamples = 30\nvalue = [0, 0, 0 ... 0, 0, 0]"] ;
366 -> 367 ;
368 [label="X[26] <= 0.5\ngini = 0.95\nsamples = 20\nvalue = [0, 0, 0 ... 0, 0, 0]"] ;
367 -> 368 ;
369 [label="X[4] <= 2.5\ngini = 0.9\nsamples = 10\nvalue = [0, 0, 0 ... 0, 0, 0]"] ;
368 -> 369 ;
370 [label="X[0] <= 5658.5\ngini = 0.5\nsamples = 2\nvalue = [0, 0, 0 ... 0, 0, 0]"] ;
369 -> 370 ;
371 [label="gini = 0.0\nsamples = 1\nvalue = [0, 0, 0 ... 0, 0, 0]"] ;
370 -> 371 ;
372 [label="gini = 0.0\nsamples = 1\nvalue = [0, 0, 0 ... 0, 0, 0]"] ;
370 -> 372 ;
373 [label="X[4] <= 3.5\ngini = 0.875\nsamples = 8\nvalue = [0, 0, 0 ... 0, 0, 0]"] ;
369 -> 373 ;
374 [label="X[38] <= 5.95\ngini = 0.5\nsamples = 2\nvalue = [0, 0, 0 ... 0, 0, 0]"] ;
373 -> 374 ;
375 [label="gini = 0.0\nsamples = 1\nvalue = [0, 0, 0 ... 0, 0, 0]"] ;
374 -> 375 ;
376 [label="gini = 0.0\nsamples = 1\nvalue = [0, 0, 0 ... 0, 0, 0]"] ;
374 -> 376 ;
377 [label="X[0] <= 5478.5\ngini = 0.833\nsamples = 6\nvalue = [0, 0, 0 ... 0, 0, 0]"] ;
373 -> 377 ;
378 [label="gini = 0.0\nsamples = 1\nvalue = [0, 0, 0 ... 0, 0, 0]"] ;
377 -> 378 ;
379 [label="X[38] <= 1.85\ngini = 0.8\nsamples = 5\nvalue = [0, 0, 0 ... 0, 0, 0]"] ;
377 -> 379 ;
380 [label="gini = 0.0\nsamples = 1\nvalue = [0, 0, 0 ... 0, 0, 0]"] ;
379 -> 380 ;
381 [label="X[4] <= 5.5\ngini = 0.75\nsamples = 4\nvalue = [0, 0, 0 ... 0, 0, 0]"] ;
379 -> 381 ;
382 [label="X[39] <= -2.2\ngini = 0.5\nsamples = 2\nvalue = [0, 0, 0 ... 0, 0, 0]"] ;
381 -> 382 ;
383 [label="gini = 0.0\nsamples = 1\nvalue = [0, 0, 0 ... 0, 0, 0]"] ;
382 -> 383 ;
384 [label="gini = 0.0\nsamples = 1\nvalue = [0, 0, 0 ... 0, 0, 0]"] ;
382 -> 384 ;
385 [label="X[39] <= 0.85\ngini = 0.5\nsamples = 2\nvalue = [0, 0, 0 ... 0, 0, 0]"] ;
381 -> 385 ;
386 [label="gini = 0.0\nsamples = 1\nvalue = [0, 0, 0 ... 0, 0, 0]"] ;
385 -> 386 ;
387 [label="gini = 0.0\nsamples = 1\nvalue = [0, 0, 0 ... 0, 0, 0]"] ;
385 -> 387 ;
388 [label="X[0] <= 3286.5\ngini = 0.9\nsamples = 10\nvalue = [0, 0, 0 ... 0, 0, 0]"] ;
368 -> 388 ;
389 [label="gini = 0.0\nsamples = 1\nvalue = [0, 0, 0 ... 0, 0, 0]"] ;
388 -> 389 ;
390 [label="X[4] <= 2.5\ngini = 0.889\nsamples = 9\nvalue = [0, 0, 0 ... 0, 0, 0]"] ;
388 -> 390 ;
391 [label="gini = 0.0\nsamples = 1\nvalue = [0, 0, 0 ... 0, 0, 0]"] ;
390 -> 391 ;
392 [label="X[4] <= 3.5\ngini = 0.875\nsamples = 8\nvalue = [0, 0, 0 ... 0, 0, 0]"] ;
390 -> 392 ;
393 [label="X[0] <= 3469.5\ngini = 0.5\nsamples = 2\nvalue = [0, 0, 0 ... 0, 0, 0]"] ;
392 -> 393 ;
394 [label="gini = 0.0\nsamples = 1\nvalue = [0, 0, 0 ... 0, 0, 0]"] ;
393 -> 394 ;
395 [label="gini = 0.0\nsamples = 1\nvalue = [0, 0, 0 ... 0, 0, 0]"] ;
393 -> 395 ;
396 [label="X[4] <= 4.5\ngini = 0.833\nsamples = 6\nvalue = [0, 0, 0 ... 0, 0, 0]"] ;
392 -> 396 ;
397 [label="X[0] <= 3470.5\ngini = 0.5\nsamples = 2\nvalue = [0, 0, 0 ... 0, 0, 0]"] ;
396 -> 397 ;
398 [label="gini = 0.0\nsamples = 1\nvalue = [0, 0, 0 ... 0, 0, 0]"] ;
397 -> 398 ;
399 [label="gini = 0.0\nsamples = 1\nvalue = [0, 0, 0 ... 0, 0, 0]"] ;
397 -> 399 ;
400 [label="X[38] <= 5.95\ngini = 0.75\nsamples = 4\nvalue = [0, 0, 0 ... 0, 0, 0]"] ;
396 -> 400 ;
401 [label="gini = 0.0\nsamples = 1\nvalue = [0, 0, 0 ... 0, 0, 0]"] ;
400 -> 401 ;
402 [label="X[0] <= 3289.5\ngini = 0.667\nsamples = 3\nvalue = [0, 0, 0 ... 0, 0, 0]"] ;
400 -> 402 ;
403 [label="gini = 0.0\nsamples = 1\nvalue = [0, 0, 0 ... 0, 0, 0]"] ;
402 -> 403 ;
404 [label="X[4] <= 7.5\ngini = 0.5\nsamples = 2\nvalue = [0, 0, 0 ... 0, 0, 0]"] ;
402 -> 404 ;
405 [label="gini = 0.0\nsamples = 1\nvalue = [0, 0, 0 ... 0, 0, 0]"] ;
404 -> 405 ;
406 [label="gini = 0.0\nsamples = 1\nvalue = [0, 0, 0 ... 0, 0, 0]"] ;
404 -> 406 ;
407 [label="X[0] <= 5484.5\ngini = 0.88\nsamples = 10\nvalue = [0, 0, 0 ... 0, 0, 0]"] ;
367 -> 407 ;
408 [label="X[0] <= 3295.5\ngini = 0.778\nsamples = 6\nvalue = [0, 0, 0 ... 0, 0, 0]"] ;
407 -> 408 ;
409 [label="X[39] <= -5.5\ngini = 0.5\nsamples = 2\nvalue = [0, 0, 0 ... 0, 0, 0]"] ;
408 -> 409 ;
410 [label="gini = 0.0\nsamples = 1\nvalue = [0, 0, 0 ... 0, 0, 0]"] ;
409 -> 410 ;
411 [label="gini = 0.0\nsamples = 1\nvalue = [0, 0, 0 ... 0, 0, 0]"] ;
409 -> 411 ;
412 [label="X[4] <= 12.5\ngini = 0.625\nsamples = 4\nvalue = [0, 0, 0 ... 0, 0, 0]"] ;
408 -> 412 ;
413 [label="gini = 0.0\nsamples = 2\nvalue = [0, 0, 0 ... 0, 0, 0]"] ;
412 -> 413 ;
414 [label="X[0] <= 3480.5\ngini = 0.5\nsamples = 2\nvalue = [0, 0, 0 ... 0, 0, 0]"] ;
412 -> 414 ;
415 [label="gini = 0.0\nsamples = 1\nvalue = [0, 0, 0 ... 0, 0, 0]"] ;
414 -> 415 ;
416 [label="gini = 0.0\nsamples = 1\nvalue = [0, 0, 0 ... 0, 0, 0]"] ;
414 -> 416 ;
417 [label="X[0] <= 5485.5\ngini = 0.75\nsamples = 4\nvalue = [0, 0, 0 ... 0, 0, 0]"] ;
407 -> 417 ;
418 [label="gini = 0.0\nsamples = 1\nvalue = [0, 0, 0 ... 0, 0, 0]"] ;
417 -> 418 ;
419 [label="X[38] <= 3.1\ngini = 0.667\nsamples = 3\nvalue = [0, 0, 0 ... 0, 0, 0]"] ;
417 -> 419 ;
420 [label="gini = 0.0\nsamples = 1\nvalue = [0, 0, 0 ... 0, 0, 0]"] ;
419 -> 420 ;
421 [label="X[0] <= 5670.0\ngini = 0.5\nsamples = 2\nvalue = [0, 0, 0 ... 0, 0, 0]"] ;
419 -> 421 ;
422 [label="gini = 0.0\nsamples = 1\nvalue = [0, 0, 0 ... 0, 0, 0]"] ;
421 -> 422 ;
423 [label="gini = 0.0\nsamples = 1\nvalue = [0, 0, 0 ... 0, 0, 0]"] ;
421 -> 423 ;
424 [label="X[0] <= 3666.0\ngini = 0.903\nsamples = 12\nvalue = [0, 0, 0 ... 0, 0, 0]"] ;
366 -> 424 ;
425 [label="X[4] <= 18.5\ngini = 0.444\nsamples = 3\nvalue = [0, 0, 0 ... 0, 0, 0]"] ;
424 -> 425 ;
426 [label="gini = 0.0\nsamples = 2\nvalue = [0, 0, 0 ... 0, 0, 0]"] ;
425 -> 426 ;
427 [label="gini = 0.0\nsamples = 1\nvalue = [0, 0, 0 ... 0, 0, 0]"] ;
425 -> 427 ;
428 [label="X[43] <= 1.5\ngini = 0.889\nsamples = 9\nvalue = [0, 0, 0 ... 0, 0, 0]"] ;
424 -> 428 ;
429 [label="X[38] <= 4.95\ngini = 0.833\nsamples = 6\nvalue = [0, 0, 0 ... 0, 0, 0]"] ;
428 -> 429 ;
430 [label="gini = 0.0\nsamples = 1\nvalue = [0, 0, 0 ... 0, 0, 0]"] ;
429 -> 430 ;
431 [label="X[31] <= 0.4\ngini = 0.8\nsamples = 5\nvalue = [0, 0, 0 ... 0, 0, 0]"] ;
429 -> 431 ;
432 [label="X[4] <= 18.5\ngini = 0.667\nsamples = 3\nvalue = [0, 0, 0 ... 0, 0, 0]"] ;
431 -> 432 ;
433 [label="gini = 0.0\nsamples = 1\nvalue = [0, 0, 0 ... 0, 0, 0]"] ;
432 -> 433 ;
434 [label="X[38] <= 5.85\ngini = 0.5\nsamples = 2\nvalue = [0, 0, 0 ... 0, 0, 0]"] ;
432 -> 434 ;
435 [label="gini = 0.0\nsamples = 1\nvalue = [0, 0, 0 ... 0, 0, 0]"] ;
434 -> 435 ;
436 [label="gini = 0.0\nsamples = 1\nvalue = [0, 0, 0 ... 0, 0, 0]"] ;
434 -> 436 ;
437 [label="X[0] <= 5858.0\ngini = 0.5\nsamples = 2\nvalue = [0, 0, 0 ... 0, 0, 0]"] ;
431 -> 437 ;
438 [label="gini = 0.0\nsamples = 1\nvalue = [0, 0, 0 ... 0, 0, 0]"] ;
437 -> 438 ;
439 [label="gini = 0.0\nsamples = 1\nvalue = [0, 0, 0 ... 0, 0, 0]"] ;
437 -> 439 ;
440 [label="X[0] <= 3667.5\ngini = 0.667\nsamples = 3\nvalue = [0, 0, 0 ... 0, 0, 0]"] ;
428 -> 440 ;
441 [label="gini = 0.0\nsamples = 1\nvalue = [0, 0, 0 ... 0, 0, 0]"] ;
440 -> 441 ;
442 [label="X[31] <= 0.4\ngini = 0.5\nsamples = 2\nvalue = [0, 0, 0 ... 0, 0, 0]"] ;
440 -> 442 ;
443 [label="gini = 0.0\nsamples = 1\nvalue = [0, 0, 0 ... 0, 0, 0]"] ;
442 -> 443 ;
444 [label="gini = 0.0\nsamples = 1\nvalue = [0, 0, 0 ... 0, 0, 0]"] ;
442 -> 444 ;
445 [label="X[39] <= 24.65\ngini = 0.994\nsamples = 182\nvalue = [0, 0, 0 ... 0, 0, 0]"] ;
341 -> 445 ;
446 [label="X[0] <= 5870.5\ngini = 0.991\nsamples = 122\nvalue = [0, 0, 0 ... 0, 0, 0]"] ;
445 -> 446 ;
447 [label="X[4] <= 25.5\ngini = 0.989\nsamples = 102\nvalue = [0, 0, 0 ... 0, 0, 0]"] ;
446 -> 447 ;
448 [label="X[30] <= 40344.5\ngini = 0.875\nsamples = 8\nvalue = [0, 0, 0 ... 0, 0, 0]"] ;
447 -> 448 ;
449 [label="X[38] <= -6.4\ngini = 0.75\nsamples = 4\nvalue = [0, 0, 0 ... 0, 0, 0]"] ;
448 -> 449 ;
450 [label="gini = 0.0\nsamples = 1\nvalue = [0, 0, 0 ... 0, 0, 0]"] ;
449 -> 450 ;
451 [label="X[38] <= -2.25\ngini = 0.667\nsamples = 3\nvalue = [0, 0, 0 ... 0, 0, 0]"] ;
449 -> 451 ;
452 [label="gini = 0.0\nsamples = 1\nvalue = [0, 0, 0 ... 0, 0, 0]"] ;
451 -> 452 ;
453 [label="X[0] <= 5498.5\ngini = 0.5\nsamples = 2\nvalue = [0, 0, 0 ... 0, 0, 0]"] ;
451 -> 453 ;
454 [label="gini = 0.0\nsamples = 1\nvalue = [0, 0, 0 ... 0, 0, 0]"] ;
453 -> 454 ;
455 [label="gini = 0.0\nsamples = 1\nvalue = [0, 0, 0 ... 0, 0, 0]"] ;
453 -> 455 ;
456 [label="X[38] <= -6.4\ngini = 0.75\nsamples = 4\nvalue = [0, 0, 0 ... 0, 0, 0]"] ;
448 -> 456 ;
457 [label="gini = 0.0\nsamples = 1\nvalue = [0, 0, 0 ... 0, 0, 0]"] ;
456 -> 457 ;
458 [label="X[4] <= 24.5\ngini = 0.667\nsamples = 3\nvalue = [0, 0, 0 ... 0, 0, 0]"] ;
456 -> 458 ;
459 [label="gini = 0.0\nsamples = 1\nvalue = [0, 0, 0 ... 0, 0, 0]"] ;
458 -> 459 ;
460 [label="X[39] <= -13.45\ngini = 0.5\nsamples = 2\nvalue = [0, 0, 0 ... 0, 0, 0]"] ;
458 -> 460 ;
461 [label="gini = 0.0\nsamples = 1\nvalue = [0, 0, 0 ... 0, 0, 0]"] ;
460 -> 461 ;
462 [label="gini = 0.0\nsamples = 1\nvalue = [0, 0, 0 ... 0, 0, 0]"] ;
460 -> 462 ;
463 [label="X[4] <= 215.5\ngini = 0.988\nsamples = 94\nvalue = [0, 0, 0 ... 0, 0, 0]"] ;
447 -> 463 ;
464 [label="X[0] <= 3315.5\ngini = 0.987\nsamples = 87\nvalue = [0, 0, 0 ... 0, 0, 0]"] ;
463 -> 464 ;
465 [label="X[0] <= 3312.5\ngini = 0.5\nsamples = 2\nvalue = [0, 0, 0 ... 0, 0, 0]"] ;
464 -> 465 ;
466 [label="gini = 0.0\nsamples = 1\nvalue = [0, 0, 0 ... 0, 0, 0]"] ;
465 -> 466 ;
467 [label="gini = 0.0\nsamples = 1\nvalue = [0, 0, 0 ... 0, 0, 0]"] ;
465 -> 467 ;
468 [label="X[39] <= 24.45\ngini = 0.986\nsamples = 85\nvalue = [0, 0, 0 ... 0, 0, 0]"] ;
464 -> 468 ;
469 [label="X[31] <= 1.95\ngini = 0.986\nsamples = 83\nvalue = [0, 0, 0 ... 0, 0, 0]"] ;
468 -> 469 ;
470 [label="X[38] <= 34.65\ngini = 0.986\nsamples = 82\nvalue = [0, 0, 0 ... 0, 0, 0]"] ;
469 -> 470 ;
471 [label="X[0] <= 3334.0\ngini = 0.986\nsamples = 81\nvalue = [0, 0, 0 ... 0, 0, 0]"] ;
470 -> 471 ;
472 [label="X[4] <= 32.5\ngini = 0.917\nsamples = 12\nvalue = [0, 0, 0 ... 0, 0, 0]"] ;
471 -> 472 ;
473 [label="gini = 0.0\nsamples = 1\nvalue = [0, 0, 0 ... 0, 0, 0]"] ;
472 -> 473 ;
474 [label="X[31] <= 0.05\ngini = 0.909\nsamples = 11\nvalue = [0, 0, 0 ... 0, 0, 0]"] ;
472 -> 474 ;
475 [label="X[0] <= 3317.5\ngini = 0.857\nsamples = 7\nvalue = [0, 0, 0 ... 0, 0, 0]"] ;
474 -> 475 ;
476 [label="gini = 0.0\nsamples = 1\nvalue = [0, 0, 0 ... 0, 0, 0]"] ;
475 -> 476 ;
477 [label="X[38] <= 4.5\ngini = 0.833\nsamples = 6\nvalue = [0, 0, 0 ... 0, 0, 0]"] ;
475 -> 477 ;
478 [label="gini = 0.0\nsamples = 1\nvalue = [0, 0, 0 ... 0, 0, 0]"] ;
477 -> 478 ;
479 [label="X[39] <= -5.05\ngini = 0.8\nsamples = 5\nvalue = [0, 0, 0 ... 0, 0, 0]"] ;
477 -> 479 ;
480 [label="gini = 0.0\nsamples = 1\nvalue = [0, 0, 0 ... 0, 0, 0]"] ;
479 -> 480 ;
481 [label="X[0] <= 3319.5\ngini = 0.75\nsamples = 4\nvalue = [0, 0, 0 ... 0, 0, 0]"] ;
479 -> 481 ;
482 [label="gini = 0.0\nsamples = 1\nvalue = [0, 0, 0 ... 0, 0, 0]"] ;
481 -> 482 ;
483 [label="X[4] <= 37.5\ngini = 0.667\nsamples = 3\nvalue = [0, 0, 0 ... 0, 0, 0]"] ;
481 -> 483 ;
484 [label="gini = 0.0\nsamples = 1\nvalue = [0, 0, 0 ... 0, 0, 0]"] ;
483 -> 484 ;
485 [label="X[39] <= -3.75\ngini = 0.5\nsamples = 2\nvalue = [0, 0, 0 ... 0, 0, 0]"] ;
483 -> 485 ;
486 [label="gini = 0.0\nsamples = 1\nvalue = [0, 0, 0 ... 0, 0, 0]"] ;
485 -> 486 ;
487 [label="gini = 0.0\nsamples = 1\nvalue = [0, 0, 0 ... 0, 0, 0]"] ;
485 -> 487 ;
488 [label="X[4] <= 42.0\ngini = 0.75\nsamples = 4\nvalue = [0, 0, 0 ... 0, 0, 0]"] ;
474 -> 488 ;
489 [label="gini = 0.0\nsamples = 1\nvalue = [0, 0, 0 ... 0, 0, 0]"] ;
488 -> 489 ;
490 [label="X[0] <= 3329.5\ngini = 0.667\nsamples = 3\nvalue = [0, 0, 0 ... 0, 0, 0]"] ;
488 -> 490 ;
491 [label="gini = 0.0\nsamples = 1\nvalue = [0, 0, 0 ... 0, 0, 0]"] ;
490 -> 491 ;
492 [label="X[0] <= 3331.5\ngini = 0.5\nsamples = 2\nvalue = [0, 0, 0 ... 0, 0, 0]"] ;
490 -> 492 ;
493 [label="gini = 0.0\nsamples = 1\nvalue = [0, 0, 0 ... 0, 0, 0]"] ;
492 -> 493 ;
494 [label="gini = 0.0\nsamples = 1\nvalue = [0, 0, 0 ... 0, 0, 0]"] ;
492 -> 494 ;
495 [label="X[0] <= 3679.5\ngini = 0.983\nsamples = 69\nvalue = [0, 0, 0 ... 0, 0, 0]"] ;
471 -> 495 ;
496 [label="X[0] <= 3474.0\ngini = 0.932\nsamples = 18\nvalue = [0, 0, 0 ... 0, 0, 0]"] ;
495 -> 496 ;
497 [label="X[4] <= 53.0\ngini = 0.857\nsamples = 7\nvalue = [0, 0, 0 ... 0, 0, 0]"] ;
496 -> 497 ;
498 [label="gini = 0.0\nsamples = 1\nvalue = [0, 0, 0 ... 0, 0, 0]"] ;
497 -> 498 ;
499 [label="X[4] <= 54.5\ngini = 0.833\nsamples = 6\nvalue = [0, 0, 0 ... 0, 0, 0]"] ;
497 -> 499 ;
500 [label="gini = 0.0\nsamples = 1\nvalue = [0, 0, 0 ... 0, 0, 0]"] ;
499 -> 500 ;
501 [label="X[38] <= 9.45\ngini = 0.8\nsamples = 5\nvalue = [0, 0, 0 ... 0, 0, 0]"] ;
499 -> 501 ;
502 [label="gini = 0.0\nsamples = 1\nvalue = [0, 0, 0 ... 0, 0, 0]"] ;
501 -> 502 ;
503 [label="X[39] <= -2.6\ngini = 0.75\nsamples = 4\nvalue = [0, 0, 0 ... 0, 0, 0]"] ;
501 -> 503 ;
504 [label="gini = 0.0\nsamples = 1\nvalue = [0, 0, 0 ... 0, 0, 0]"] ;
503 -> 504 ;
505 [label="X[31] <= 0.85\ngini = 0.667\nsamples = 3\nvalue = [0, 0, 0 ... 0, 0, 0]"] ;
503 -> 505 ;
506 [label="X[32] <= 0.5\ngini = 0.5\nsamples = 2\nvalue = [0, 0, 0 ... 0, 0, 0]"] ;
505 -> 506 ;
507 [label="gini = 0.0\nsamples = 1\nvalue = [0, 0, 0 ... 0, 0, 0]"] ;
506 -> 507 ;
508 [label="gini = 0.0\nsamples = 1\nvalue = [0, 0, 0 ... 0, 0, 0]"] ;
506 -> 508 ;
509 [label="gini = 0.0\nsamples = 1\nvalue = [0, 0, 0 ... 0, 0, 0]"] ;
505 -> 509 ;
510 [label="X[4] <= 194.5\ngini = 0.876\nsamples = 11\nvalue = [0, 0, 0 ... 0, 0, 0]"] ;
496 -> 510 ;
511 [label="X[39] <= -13.95\ngini = 0.722\nsamples = 6\nvalue = [0, 0, 0 ... 0, 0, 0]"] ;
510 -> 511 ;
512 [label="gini = 0.0\nsamples = 1\nvalue = [0, 0, 0 ... 0, 0, 0]"] ;
511 -> 512 ;
513 [label="X[39] <= 23.7\ngini = 0.64\nsamples = 5\nvalue = [0, 0, 0 ... 0, 0, 0]"] ;
511 -> 513 ;
514 [label="X[4] <= 29.5\ngini = 0.5\nsamples = 4\nvalue = [0, 0, 0 ... 0, 0, 0]"] ;
513 -> 514 ;
515 [label="gini = 0.0\nsamples = 1\nvalue = [0, 0, 0 ... 0, 0, 0]"] ;
514 -> 515 ;
516 [label="X[31] <= 0.4\ngini = 0.444\nsamples = 3\nvalue = [0, 0, 0 ... 0, 0, 0]"] ;
514 -> 516 ;
517 [label="gini = 0.0\nsamples = 2\nvalue = [0, 0, 0 ... 0, 0, 0]"] ;
516 -> 517 ;
518 [label="gini = 0.0\nsamples = 1\nvalue = [0, 0, 0 ... 0, 0, 0]"] ;
516 -> 518 ;
519 [label="gini = 0.0\nsamples = 1\nvalue = [0, 0, 0 ... 0, 0, 0]"] ;
513 -> 519 ;
520 [label="X[39] <= 22.6\ngini = 0.8\nsamples = 5\nvalue = [0, 0, 0 ... 0, 0, 0]"] ;
510 -> 520 ;
521 [label="gini = 0.0\nsamples = 1\nvalue = [0, 0, 0 ... 0, 0, 0]"] ;
520 -> 521 ;
522 [label="X[39] <= 23.25\ngini = 0.75\nsamples = 4\nvalue = [0, 0, 0 ... 0, 0, 0]"] ;
520 -> 522 ;
523 [label="gini = 0.0\nsamples = 1\nvalue = [0, 0, 0 ... 0, 0, 0]"] ;
522 -> 523 ;
524 [label="X[38] <= 32.15\ngini = 0.667\nsamples = 3\nvalue = [0, 0, 0 ... 0, 0, 0]"] ;
522 -> 524 ;
525 [label="gini = 0.0\nsamples = 1\nvalue = [0, 0, 0 ... 0, 0, 0]"] ;
524 -> 525 ;
526 [label="X[38] <= 33.25\ngini = 0.5\nsamples = 2\nvalue = [0, 0, 0 ... 0, 0, 0]"] ;
524 -> 526 ;
527 [label="gini = 0.0\nsamples = 1\nvalue = [0, 0, 0 ... 0, 0, 0]"] ;
526 -> 527 ;
528 [label="gini = 0.0\nsamples = 1\nvalue = [0, 0, 0 ... 0, 0, 0]"] ;
526 -> 528 ;
529 [label="X[4] <= 27.5\ngini = 0.98\nsamples = 51\nvalue = [0, 0, 0 ... 0, 0, 0]"] ;
495 -> 529 ;
530 [label="X[39] <= -12.85\ngini = 0.5\nsamples = 2\nvalue = [0, 0, 0 ... 0, 0, 0]"] ;
529 -> 530 ;
531 [label="gini = 0.0\nsamples = 1\nvalue = [0, 0, 0 ... 0, 0, 0]"] ;
530 -> 531 ;
532 [label="gini = 0.0\nsamples = 1\nvalue = [0, 0, 0 ... 0, 0, 0]"] ;
530 -> 532 ;
533 [label="X[0] <= 3680.5\ngini = 0.98\nsamples = 49\nvalue = [0, 0, 0 ... 0, 0, 0]"] ;
529 -> 533 ;
534 [label="gini = 0.0\nsamples = 1\nvalue = [0, 0, 0 ... 0, 0, 0]"] ;
533 -> 534 ;
535 [label="X[38] <= -2.45\ngini = 0.979\nsamples = 48\nvalue = [0, 0, 0 ... 0, 0, 0]"] ;
533 -> 535 ;
536 [label="gini = 0.0\nsamples = 1\nvalue = [0, 0, 0 ... 0, 0, 0]"] ;
535 -> 536 ;
537 [label="X[31] <= 0.05\ngini = 0.979\nsamples = 47\nvalue = [0, 0, 0 ... 0, 0, 0]"] ;
535 -> 537 ;
538 [label="X[26] <= 0.5\ngini = 0.974\nsamples = 38\nvalue = [0, 0, 0 ... 0, 0, 0]"] ;
537 -> 538 ;
539 [label="X[32] <= 0.5\ngini = 0.955\nsamples = 22\nvalue = [0, 0, 0 ... 0, 0, 0]"] ;
538 -> 539 ;
540 [label="X[0] <= 5505.5\ngini = 0.941\nsamples = 17\nvalue = [0, 0, 0 ... 0, 0, 0]"] ;
539 -> 540 ;
541 [label="gini = 0.0\nsamples = 1\nvalue = [0, 0, 0 ... 0, 0, 0]"] ;
540 -> 541 ;
542 [label="X[39] <= -10.35\ngini = 0.938\nsamples = 16\nvalue = [0, 0, 0 ... 0, 0, 0]"] ;
540 -> 542 ;
543 [label="gini = 0.0\nsamples = 1\nvalue = [0, 0, 0 ... 0, 0, 0]"] ;
542 -> 543 ;
544 [label="X[4] <= 31.5\ngini = 0.933\nsamples = 15\nvalue = [0, 0, 0 ... 0, 0, 0]"] ;
542 -> 544 ;
545 [label="gini = 0.0\nsamples = 1\nvalue = [0, 0, 0 ... 0, 0, 0]"] ;
544 -> 545 ;
546 [label="X[0] <= 5506.5\ngini = 0.929\nsamples = 14\nvalue = [0, 0, 0 ... 0, 0, 0]"] ;
544 -> 546 ;
547 [label="gini = 0.0\nsamples = 1\nvalue = [0, 0, 0 ... 0, 0, 0]"] ;
546 -> 547 ;
548 [label="X[0] <= 5507.5\ngini = 0.923\nsamples = 13\nvalue = [0, 0, 0 ... 0, 0, 0]"] ;
546 -> 548 ;
549 [label="gini = 0.0\nsamples = 1\nvalue = [0, 0, 0 ... 0, 0, 0]"] ;
548 -> 549 ;
550 [label="X[4] <= 35.5\ngini = 0.917\nsamples = 12\nvalue = [0, 0, 0 ... 0, 0, 0]"] ;
548 -> 550 ;
551 [label="gini = 0.0\nsamples = 1\nvalue = [0, 0, 0 ... 0, 0, 0]"] ;
550 -> 551 ;
552 [label="X[0] <= 5511.5\ngini = 0.909\nsamples = 11\nvalue = [0, 0, 0 ... 0, 0, 0]"] ;
550 -> 552 ;
553 [label="gini = 0.0\nsamples = 1\nvalue = [0, 0, 0 ... 0, 0, 0]"] ;
552 -> 553 ;
554 [label="X[0] <= 5512.5\ngini = 0.9\nsamples = 10\nvalue = [0, 0, 0 ... 0, 0, 0]"] ;
552 -> 554 ;
555 [label="gini = 0.0\nsamples = 1\nvalue = [0, 0, 0 ... 0, 0, 0]"] ;
554 -> 555 ;
556 [label="X[4] <= 42.0\ngini = 0.889\nsamples = 9\nvalue = [0, 0, 0 ... 0, 0, 0]"] ;
554 -> 556 ;
557 [label="gini = 0.0\nsamples = 1\nvalue = [0, 0, 0 ... 0, 0, 0]"] ;
556 -> 557 ;
558 [label="X[0] <= 5519.5\ngini = 0.875\nsamples = 8\nvalue = [0, 0, 0 ... 0, 0, 0]"] ;
556 -> 558 ;
559 [label="gini = 0.0\nsamples = 1\nvalue = [0, 0, 0 ... 0, 0, 0]"] ;
558 -> 559 ;
560 [label="X[0] <= 5523.0\ngini = 0.857\nsamples = 7\nvalue = [0, 0, 0 ... 0, 0, 0]"] ;
558 -> 560 ;
561 [label="gini = 0.0\nsamples = 1\nvalue = [0, 0, 0 ... 0, 0, 0]"] ;
560 -> 561 ;
562 [label="X[4] <= 53.0\ngini = 0.833\nsamples = 6\nvalue = [0, 0, 0 ... 0, 0, 0]"] ;
560 -> 562 ;
563 [label="gini = 0.0\nsamples = 1\nvalue = [0, 0, 0 ... 0, 0, 0]"] ;
562 -> 563 ;
564 [label="X[4] <= 54.5\ngini = 0.8\nsamples = 5\nvalue = [0, 0, 0 ... 0, 0, 0]"] ;
562 -> 564 ;
565 [label="gini = 0.0\nsamples = 1\nvalue = [0, 0, 0 ... 0, 0, 0]"] ;
564 -> 565 ;
566 [label="X[38] <= 9.45\ngini = 0.75\nsamples = 4\nvalue = [0, 0, 0 ... 0, 0, 0]"] ;
564 -> 566 ;
567 [label="gini = 0.0\nsamples = 1\nvalue = [0, 0, 0 ... 0, 0, 0]"] ;
566 -> 567 ;
568 [label="X[39] <= -2.6\ngini = 0.667\nsamples = 3\nvalue = [0, 0, 0 ... 0, 0, 0]"] ;
566 -> 568 ;
569 [label="gini = 0.0\nsamples = 1\nvalue = [0, 0, 0 ... 0, 0, 0]"] ;
568 -> 569 ;
570 [label="X[39] <= 10.9\ngini = 0.5\nsamples = 2\nvalue = [0, 0, 0 ... 0, 0, 0]"] ;
568 -> 570 ;
571 [label="gini = 0.0\nsamples = 1\nvalue = [0, 0, 0 ... 0, 0, 0]"] ;
570 -> 571 ;
572 [label="gini = 0.0\nsamples = 1\nvalue = [0, 0, 0 ... 0, 0, 0]"] ;
570 -> 572 ;
573 [label="X[0] <= 5663.5\ngini = 0.8\nsamples = 5\nvalue = [0, 0, 0 ... 0, 0, 0]"] ;
539 -> 573 ;
574 [label="gini = 0.0\nsamples = 1\nvalue = [0, 0, 0 ... 0, 0, 0]"] ;
573 -> 574 ;
575 [label="X[39] <= 22.55\ngini = 0.75\nsamples = 4\nvalue = [0, 0, 0 ... 0, 0, 0]"] ;
573 -> 575 ;
576 [label="gini = 0.0\nsamples = 1\nvalue = [0, 0, 0 ... 0, 0, 0]"] ;
575 -> 576 ;
577 [label="X[38] <= 32.1\ngini = 0.667\nsamples = 3\nvalue = [0, 0, 0 ... 0, 0, 0]"] ;
575 -> 577 ;
578 [label="gini = 0.0\nsamples = 1\nvalue = [0, 0, 0 ... 0, 0, 0]"] ;
577 -> 578 ;
579 [label="X[4] <= 193.5\ngini = 0.5\nsamples = 2\nvalue = [0, 0, 0 ... 0, 0, 0]"] ;
577 -> 579 ;
580 [label="gini = 0.0\nsamples = 1\nvalue = [0, 0, 0 ... 0, 0, 0]"] ;
579 -> 580 ;
581 [label="gini = 0.0\nsamples = 1\nvalue = [0, 0, 0 ... 0, 0, 0]"] ;
579 -> 581 ;
582 [label="X[4] <= 32.5\ngini = 0.938\nsamples = 16\nvalue = [0, 0, 0 ... 0, 0, 0]"] ;
538 -> 582 ;
583 [label="gini = 0.0\nsamples = 1\nvalue = [0, 0, 0 ... 0, 0, 0]"] ;
582 -> 583 ;
584 [label="X[0] <= 3683.5\ngini = 0.933\nsamples = 15\nvalue = [0, 0, 0 ... 0, 0, 0]"] ;
582 -> 584 ;
585 [label="gini = 0.0\nsamples = 1\nvalue = [0, 0, 0 ... 0, 0, 0]"] ;
584 -> 585 ;
586 [label="X[4] <= 37.0\ngini = 0.929\nsamples = 14\nvalue = [0, 0, 0 ... 0, 0, 0]"] ;
584 -> 586 ;
587 [label="gini = 0.0\nsamples = 1\nvalue = [0, 0, 0 ... 0, 0, 0]"] ;
586 -> 587 ;
588 [label="X[0] <= 3687.5\ngini = 0.923\nsamples = 13\nvalue = [0, 0, 0 ... 0, 0, 0]"] ;
586 -> 588 ;
589 [label="gini = 0.0\nsamples = 1\nvalue = [0, 0, 0 ... 0, 0, 0]"] ;
588 -> 589 ;
590 [label="X[0] <= 3688.5\ngini = 0.917\nsamples = 12\nvalue = [0, 0, 0 ... 0, 0, 0]"] ;
588 -> 590 ;
591 [label="gini = 0.0\nsamples = 1\nvalue = [0, 0, 0 ... 0, 0, 0]"] ;
590 -> 591 ;
592 [label="X[38] <= 6.5\ngini = 0.909\nsamples = 11\nvalue = [0, 0, 0 ... 0, 0, 0]"] ;
590 -> 592 ;
593 [label="gini = 0.0\nsamples = 1\nvalue = [0, 0, 0 ... 0, 0, 0]"] ;
592 -> 593 ;
594 [label="X[4] <= 42.5\ngini = 0.9\nsamples = 10\nvalue = [0, 0, 0 ... 0, 0, 0]"] ;
592 -> 594 ;
595 [label="gini = 0.0\nsamples = 1\nvalue = [0, 0, 0 ... 0, 0, 0]"] ;
594 -> 595 ;
596 [label="X[32] <= 0.5\ngini = 0.889\nsamples = 9\nvalue = [0, 0, 0 ... 0, 0, 0]"] ;
594 -> 596 ;
597 [label="X[4] <= 47.5\ngini = 0.833\nsamples = 6\nvalue = [0, 0, 0 ... 0, 0, 0]"] ;
596 -> 597 ;
598 [label="gini = 0.0\nsamples = 1\nvalue = [0, 0, 0 ... 0, 0, 0]"] ;
597 -> 598 ;
599 [label="X[0] <= 3699.5\ngini = 0.8\nsamples = 5\nvalue = [0, 0, 0 ... 0, 0, 0]"] ;
597 -> 599 ;
600 [label="gini = 0.0\nsamples = 1\nvalue = [0, 0, 0 ... 0, 0, 0]"] ;
599 -> 600 ;
601 [label="X[4] <= 52.0\ngini = 0.75\nsamples = 4\nvalue = [0, 0, 0 ... 0, 0, 0]"] ;
599 -> 601 ;
602 [label="gini = 0.0\nsamples = 1\nvalue = [0, 0, 0 ... 0, 0, 0]"] ;
601 -> 602 ;
603 [label="X[38] <= 10.3\ngini = 0.667\nsamples = 3\nvalue = [0, 0, 0 ... 0, 0, 0]"] ;
601 -> 603 ;
604 [label="gini = 0.0\nsamples = 1\nvalue = [0, 0, 0 ... 0, 0, 0]"] ;
603 -> 604 ;
605 [label="X[39] <= -3.05\ngini = 0.5\nsamples = 2\nvalue = [0, 0, 0 ... 0, 0, 0]"] ;
603 -> 605 ;
606 [label="gini = 0.0\nsamples = 1\nvalue = [0, 0, 0 ... 0, 0, 0]"] ;
605 -> 606 ;
607 [label="gini = 0.0\nsamples = 1\nvalue = [0, 0, 0 ... 0, 0, 0]"] ;
605 -> 607 ;
608 [label="X[38] <= 29.6\ngini = 0.667\nsamples = 3\nvalue = [0, 0, 0 ... 0, 0, 0]"] ;
596 -> 608 ;
609 [label="gini = 0.0\nsamples = 1\nvalue = [0, 0, 0 ... 0, 0, 0]"] ;
608 -> 609 ;
610 [label="X[0] <= 3837.0\ngini = 0.5\nsamples = 2\nvalue = [0, 0, 0 ... 0, 0, 0]"] ;
608 -> 610 ;
611 [label="gini = 0.0\nsamples = 1\nvalue = [0, 0, 0 ... 0, 0, 0]"] ;
610 -> 611 ;
612 [label="gini = 0.0\nsamples = 1\nvalue = [0, 0, 0 ... 0, 0, 0]"] ;
610 -> 612 ;
613 [label="X[5] <= 84.471\ngini = 0.889\nsamples = 9\nvalue = [0, 0, 0 ... 0, 0, 0]"] ;
537 -> 613 ;
614 [label="gini = 0.0\nsamples = 1\nvalue = [0, 0, 0 ... 0, 0, 0]"] ;
613 -> 614 ;
615 [label="X[32] <= 0.5\ngini = 0.875\nsamples = 8\nvalue = [0, 0, 0 ... 0, 0, 0]"] ;
613 -> 615 ;
616 [label="X[4] <= 42.0\ngini = 0.75\nsamples = 4\nvalue = [0, 0, 0 ... 0, 0, 0]"] ;
615 -> 616 ;
617 [label="gini = 0.0\nsamples = 1\nvalue = [0, 0, 0 ... 0, 0, 0]"] ;
616 -> 617 ;
618 [label="X[31] <= 1.25\ngini = 0.667\nsamples = 3\nvalue = [0, 0, 0 ... 0, 0, 0]"] ;
616 -> 618 ;
619 [label="gini = 0.0\nsamples = 1\nvalue = [0, 0, 0 ... 0, 0, 0]"] ;
618 -> 619 ;
620 [label="X[39] <= -3.05\ngini = 0.5\nsamples = 2\nvalue = [0, 0, 0 ... 0, 0, 0]"] ;
618 -> 620 ;
621 [label="gini = 0.0\nsamples = 1\nvalue = [0, 0, 0 ... 0, 0, 0]"] ;
620 -> 621 ;
622 [label="gini = 0.0\nsamples = 1\nvalue = [0, 0, 0 ... 0, 0, 0]"] ;
620 -> 622 ;
623 [label="X[0] <= 5664.0\ngini = 0.75\nsamples = 4\nvalue = [0, 0, 0 ... 0, 0, 0]"] ;
615 -> 623 ;
624 [label="gini = 0.0\nsamples = 1\nvalue = [0, 0, 0 ... 0, 0, 0]"] ;
623 -> 624 ;
625 [label="X[31] <= 0.85\ngini = 0.667\nsamples = 3\nvalue = [0, 0, 0 ... 0, 0, 0]"] ;
623 -> 625 ;
626 [label="gini = 0.0\nsamples = 1\nvalue = [0, 0, 0 ... 0, 0, 0]"] ;
625 -> 626 ;
627 [label="X[39] <= 23.65\ngini = 0.5\nsamples = 2\nvalue = [0, 0, 0 ... 0, 0, 0]"] ;
625 -> 627 ;
628 [label="gini = 0.0\nsamples = 1\nvalue = [0, 0, 0 ... 0, 0, 0]"] ;
627 -> 628 ;
629 [label="gini = 0.0\nsamples = 1\nvalue = [0, 0, 0 ... 0, 0, 0]"] ;
627 -> 629 ;
630 [label="gini = 0.0\nsamples = 1\nvalue = [0, 0, 0 ... 0, 0, 0]"] ;
470 -> 630 ;
631 [label="gini = 0.0\nsamples = 1\nvalue = [0, 0, 0 ... 0, 0, 0]"] ;
469 -> 631 ;
632 [label="X[3] <= 0.5\ngini = 0.5\nsamples = 2\nvalue = [0, 0, 0 ... 0, 0, 0]"] ;
468 -> 632 ;
633 [label="gini = 0.0\nsamples = 1\nvalue = [0, 0, 0 ... 0, 0, 0]"] ;
632 -> 633 ;
634 [label="gini = 0.0\nsamples = 1\nvalue = [0, 0, 0 ... 0, 0, 0]"] ;
632 -> 634 ;
635 [label="X[26] <= 0.5\ngini = 0.857\nsamples = 7\nvalue = [0, 0, 0 ... 0, 0, 0]"] ;
463 -> 635 ;
636 [label="X[39] <= 23.5\ngini = 0.667\nsamples = 3\nvalue = [0, 0, 0 ... 0, 0, 0]"] ;
635 -> 636 ;
637 [label="gini = 0.0\nsamples = 1\nvalue = [0, 0, 0 ... 0, 0, 0]"] ;
636 -> 637 ;
638 [label="X[39] <= 24.3\ngini = 0.5\nsamples = 2\nvalue = [0, 0, 0 ... 0, 0, 0]"] ;
636 -> 638 ;
639 [label="gini = 0.0\nsamples = 1\nvalue = [0, 0, 0 ... 0, 0, 0]"] ;
638 -> 639 ;
640 [label="gini = 0.0\nsamples = 1\nvalue = [0, 0, 0 ... 0, 0, 0]"] ;
638 -> 640 ;
641 [label="X[0] <= 3503.5\ngini = 0.75\nsamples = 4\nvalue = [0, 0, 0 ... 0, 0, 0]"] ;
635 -> 641 ;
642 [label="gini = 0.0\nsamples = 1\nvalue = [0, 0, 0 ... 0, 0, 0]"] ;
641 -> 642 ;
643 [label="X[4] <= 226.0\ngini = 0.667\nsamples = 3\nvalue = [0, 0, 0 ... 0, 0, 0]"] ;
641 -> 643 ;
644 [label="gini = 0.0\nsamples = 1\nvalue = [0, 0, 0 ... 0, 0, 0]"] ;
643 -> 644 ;
645 [label="X[38] <= 31.3\ngini = 0.5\nsamples = 2\nvalue = [0, 0, 0 ... 0, 0, 0]"] ;
643 -> 645 ;
646 [label="gini = 0.0\nsamples = 1\nvalue = [0, 0, 0 ... 0, 0, 0]"] ;
645 -> 646 ;
647 [label="gini = 0.0\nsamples = 1\nvalue = [0, 0, 0 ... 0, 0, 0]"] ;
645 -> 647 ;
648 [label="X[38] <= -1.2\ngini = 0.95\nsamples = 20\nvalue = [0, 0, 0 ... 0, 0, 0]"] ;
446 -> 648 ;
649 [label="gini = 0.0\nsamples = 1\nvalue = [0, 0, 0 ... 0, 0, 0]"] ;
648 -> 649 ;
650 [label="X[4] <= 32.5\ngini = 0.947\nsamples = 19\nvalue = [0, 0, 0 ... 0, 0, 0]"] ;
648 -> 650 ;
651 [label="gini = 0.0\nsamples = 1\nvalue = [0, 0, 0 ... 0, 0, 0]"] ;
650 -> 651 ;
652 [label="X[38] <= 2.25\ngini = 0.944\nsamples = 18\nvalue = [0, 0, 0 ... 0, 0, 0]"] ;
650 -> 652 ;
653 [label="gini = 0.0\nsamples = 1\nvalue = [0, 0, 0 ... 0, 0, 0]"] ;
652 -> 653 ;
654 [label="X[0] <= 5875.0\ngini = 0.941\nsamples = 17\nvalue = [0, 0, 0 ... 0, 0, 0]"] ;
652 -> 654 ;
655 [label="gini = 0.0\nsamples = 1\nvalue = [0, 0, 0 ... 0, 0, 0]"] ;
654 -> 655 ;
656 [label="X[32] <= 0.5\ngini = 0.938\nsamples = 16\nvalue = [0, 0, 0 ... 0, 0, 0]"] ;
654 -> 656 ;
657 [label="X[4] <= 39.5\ngini = 0.917\nsamples = 12\nvalue = [0, 0, 0 ... 0, 0, 0]"] ;
656 -> 657 ;
658 [label="gini = 0.0\nsamples = 1\nvalue = [0, 0, 0 ... 0, 0, 0]"] ;
657 -> 658 ;
659 [label="X[0] <= 5881.5\ngini = 0.909\nsamples = 11\nvalue = [0, 0, 0 ... 0, 0, 0]"] ;
657 -> 659 ;
660 [label="gini = 0.0\nsamples = 1\nvalue = [0, 0, 0 ... 0, 0, 0]"] ;
659 -> 660 ;
661 [label="X[38] <= 6.5\ngini = 0.9\nsamples = 10\nvalue = [0, 0, 0 ... 0, 0, 0]"] ;
659 -> 661 ;
662 [label="gini = 0.0\nsamples = 1\nvalue = [0, 0, 0 ... 0, 0, 0]"] ;
661 -> 662 ;
663 [label="X[38] <= 7.85\ngini = 0.889\nsamples = 9\nvalue = [0, 0, 0 ... 0, 0, 0]"] ;
661 -> 663 ;
664 [label="gini = 0.0\nsamples = 1\nvalue = [0, 0, 0 ... 0, 0, 0]"] ;
663 -> 664 ;
665 [label="X[0] <= 5886.5\ngini = 0.875\nsamples = 8\nvalue = [0, 0, 0 ... 0, 0, 0]"] ;
663 -> 665 ;
666 [label="gini = 0.0\nsamples = 1\nvalue = [0, 0, 0 ... 0, 0, 0]"] ;
665 -> 666 ;
667 [label="X[38] <= 8.45\ngini = 0.857\nsamples = 7\nvalue = [0, 0, 0 ... 0, 0, 0]"] ;
665 -> 667 ;
668 [label="gini = 0.0\nsamples = 1\nvalue = [0, 0, 0 ... 0, 0, 0]"] ;
667 -> 668 ;
669 [label="X[38] <= 9.4\ngini = 0.833\nsamples = 6\nvalue = [0, 0, 0 ... 0, 0, 0]"] ;
667 -> 669 ;
670 [label="gini = 0.0\nsamples = 1\nvalue = [0, 0, 0 ... 0, 0, 0]"] ;
669 -> 670 ;
671 [label="X[31] <= 1.0\ngini = 0.8\nsamples = 5\nvalue = [0, 0, 0 ... 0, 0, 0]"] ;
669 -> 671 ;
672 [label="X[4] <= 57.5\ngini = 0.75\nsamples = 4\nvalue = [0, 0, 0 ... 0, 0, 0]"] ;
671 -> 672 ;
673 [label="gini = 0.0\nsamples = 1\nvalue = [0, 0, 0 ... 0, 0, 0]"] ;
672 -> 673 ;
674 [label="X[39] <= 10.65\ngini = 0.667\nsamples = 3\nvalue = [0, 0, 0 ... 0, 0, 0]"] ;
672 -> 674 ;
675 [label="gini = 0.0\nsamples = 1\nvalue = [0, 0, 0 ... 0, 0, 0]"] ;
674 -> 675 ;
676 [label="X[38] <= 33.9\ngini = 0.5\nsamples = 2\nvalue = [0, 0, 0 ... 0, 0, 0]"] ;
674 -> 676 ;
677 [label="gini = 0.0\nsamples = 1\nvalue = [0, 0, 0 ... 0, 0, 0]"] ;
676 -> 677 ;
678 [label="gini = 0.0\nsamples = 1\nvalue = [0, 0, 0 ... 0, 0, 0]"] ;
676 -> 678 ;
679 [label="gini = 0.0\nsamples = 1\nvalue = [0, 0, 0 ... 0, 0, 0]"] ;
671 -> 679 ;
680 [label="X[0] <= 6023.5\ngini = 0.75\nsamples = 4\nvalue = [0, 0, 0 ... 0, 0, 0]"] ;
656 -> 680 ;
681 [label="gini = 0.0\nsamples = 1\nvalue = [0, 0, 0 ... 0, 0, 0]"] ;
680 -> 681 ;
682 [label="X[31] <= 0.1\ngini = 0.667\nsamples = 3\nvalue = [0, 0, 0 ... 0, 0, 0]"] ;
680 -> 682 ;
683 [label="X[0] <= 6027.0\ngini = 0.5\nsamples = 2\nvalue = [0, 0, 0 ... 0, 0, 0]"] ;
682 -> 683 ;
684 [label="gini = 0.0\nsamples = 1\nvalue = [0, 0, 0 ... 0, 0, 0]"] ;
683 -> 684 ;
685 [label="gini = 0.0\nsamples = 1\nvalue = [0, 0, 0 ... 0, 0, 0]"] ;
683 -> 685 ;
686 [label="gini = 0.0\nsamples = 1\nvalue = [0, 0, 0 ... 0, 0, 0]"] ;
682 -> 686 ;
687 [label="X[0] <= 6048.5\ngini = 0.982\nsamples = 60\nvalue = [0, 0, 0 ... 0, 0, 0]"] ;
445 -> 687 ;
688 [label="X[4] <= 198.5\ngini = 0.977\nsamples = 47\nvalue = [0, 0, 0 ... 0, 0, 0]"] ;
687 -> 688 ;
689 [label="X[13] <= 4.5\ngini = 0.875\nsamples = 8\nvalue = [0, 0, 0 ... 0, 0, 0]"] ;
688 -> 689 ;
690 [label="X[39] <= 25.55\ngini = 0.75\nsamples = 4\nvalue = [0, 0, 0 ... 0, 0, 0]"] ;
689 -> 690 ;
691 [label="gini = 0.0\nsamples = 1\nvalue = [0, 0, 0 ... 0, 0, 0]"] ;
690 -> 691 ;
692 [label="X[0] <= 6032.5\ngini = 0.667\nsamples = 3\nvalue = [0, 0, 0 ... 0, 0, 0]"] ;
690 -> 692 ;
693 [label="gini = 0.0\nsamples = 1\nvalue = [0, 0, 0 ... 0, 0, 0]"] ;
692 -> 693 ;
694 [label="X[38] <= 33.4\ngini = 0.5\nsamples = 2\nvalue = [0, 0, 0 ... 0, 0, 0]"] ;
692 -> 694 ;
695 [label="gini = 0.0\nsamples = 1\nvalue = [0, 0, 0 ... 0, 0, 0]"] ;
694 -> 695 ;
696 [label="gini = 0.0\nsamples = 1\nvalue = [0, 0, 0 ... 0, 0, 0]"] ;
694 -> 696 ;
697 [label="X[39] <= 25.55\ngini = 0.75\nsamples = 4\nvalue = [0, 0, 0 ... 0, 0, 0]"] ;
689 -> 697 ;
698 [label="gini = 0.0\nsamples = 1\nvalue = [0, 0, 0 ... 0, 0, 0]"] ;
697 -> 698 ;
699 [label="X[38] <= 32.7\ngini = 0.667\nsamples = 3\nvalue = [0, 0, 0 ... 0, 0, 0]"] ;
697 -> 699 ;
700 [label="gini = 0.0\nsamples = 1\nvalue = [0, 0, 0 ... 0, 0, 0]"] ;
699 -> 700 ;
701 [label="X[0] <= 3844.0\ngini = 0.5\nsamples = 2\nvalue = [0, 0, 0 ... 0, 0, 0]"] ;
699 -> 701 ;
702 [label="gini = 0.0\nsamples = 1\nvalue = [0, 0, 0 ... 0, 0, 0]"] ;
701 -> 702 ;
703 [label="gini = 0.0\nsamples = 1\nvalue = [0, 0, 0 ... 0, 0, 0]"] ;
701 -> 703 ;
704 [label="X[0] <= 3872.5\ngini = 0.972\nsamples = 39\nvalue = [0, 0, 0 ... 0, 0, 0]"] ;
688 -> 704 ;
705 [label="X[32] <= 0.5\ngini = 0.957\nsamples = 23\nvalue = [0, 0, 0 ... 0, 0, 0]"] ;
704 -> 705 ;
706 [label="X[4] <= 199.5\ngini = 0.95\nsamples = 20\nvalue = [0, 0, 0 ... 0, 0, 0]"] ;
705 -> 706 ;
707 [label="gini = 0.0\nsamples = 1\nvalue = [0, 0, 0 ... 0, 0, 0]"] ;
706 -> 707 ;
708 [label="X[39] <= 24.9\ngini = 0.947\nsamples = 19\nvalue = [0, 0, 0 ... 0, 0, 0]"] ;
706 -> 708 ;
709 [label="gini = 0.0\nsamples = 1\nvalue = [0, 0, 0 ... 0, 0, 0]"] ;
708 -> 709 ;
710 [label="X[39] <= 25.05\ngini = 0.944\nsamples = 18\nvalue = [0, 0, 0 ... 0, 0, 0]"] ;
708 -> 710 ;
711 [label="gini = 0.0\nsamples = 1\nvalue = [0, 0, 0 ... 0, 0, 0]"] ;
710 -> 711 ;
712 [label="X[39] <= 25.25\ngini = 0.941\nsamples = 17\nvalue = [0, 0, 0 ... 0, 0, 0]"] ;
710 -> 712 ;
713 [label="gini = 0.0\nsamples = 1\nvalue = [0, 0, 0 ... 0, 0, 0]"] ;
712 -> 713 ;
714 [label="X[39] <= 25.5\ngini = 0.938\nsamples = 16\nvalue = [0, 0, 0 ... 0, 0, 0]"] ;
712 -> 714 ;
715 [label="gini = 0.0\nsamples = 1\nvalue = [0, 0, 0 ... 0, 0, 0]"] ;
714 -> 715 ;
716 [label="X[4] <= 204.5\ngini = 0.933\nsamples = 15\nvalue = [0, 0, 0 ... 0, 0, 0]"] ;
714 -> 716 ;
717 [label="gini = 0.0\nsamples = 1\nvalue = [0, 0, 0 ... 0, 0, 0]"] ;
716 -> 717 ;
718 [label="X[38] <= 34.3\ngini = 0.929\nsamples = 14\nvalue = [0, 0, 0 ... 0, 0, 0]"] ;
716 -> 718 ;
719 [label="gini = 0.0\nsamples = 1\nvalue = [0, 0, 0 ... 0, 0, 0]"] ;
718 -> 719 ;
720 [label="X[38] <= 34.95\ngini = 0.923\nsamples = 13\nvalue = [0, 0, 0 ... 0, 0, 0]"] ;
718 -> 720 ;
721 [label="gini = 0.0\nsamples = 1\nvalue = [0, 0, 0 ... 0, 0, 0]"] ;
720 -> 721 ;
722 [label="X[4] <= 206.0\ngini = 0.917\nsamples = 12\nvalue = [0, 0, 0 ... 0, 0, 0]"] ;
720 -> 722 ;
723 [label="gini = 0.0\nsamples = 1\nvalue = [0, 0, 0 ... 0, 0, 0]"] ;
722 -> 723 ;
724 [label="X[39] <= 26.1\ngini = 0.909\nsamples = 11\nvalue = [0, 0, 0 ... 0, 0, 0]"] ;
722 -> 724 ;
725 [label="gini = 0.0\nsamples = 1\nvalue = [0, 0, 0 ... 0, 0, 0]"] ;
724 -> 725 ;
726 [label="X[0] <= 3856.5\ngini = 0.9\nsamples = 10\nvalue = [0, 0, 0 ... 0, 0, 0]"] ;
724 -> 726 ;
727 [label="gini = 0.0\nsamples = 1\nvalue = [0, 0, 0 ... 0, 0, 0]"] ;
726 -> 727 ;
728 [label="X[38] <= 36.0\ngini = 0.889\nsamples = 9\nvalue = [0, 0, 0 ... 0, 0, 0]"] ;
726 -> 728 ;
729 [label="X[0] <= 3868.5\ngini = 0.5\nsamples = 2\nvalue = [0, 0, 0 ... 0, 0, 0]"] ;
728 -> 729 ;
730 [label="gini = 0.0\nsamples = 1\nvalue = [0, 0, 0 ... 0, 0, 0]"] ;
729 -> 730 ;
731 [label="gini = 0.0\nsamples = 1\nvalue = [0, 0, 0 ... 0, 0, 0]"] ;
729 -> 731 ;
732 [label="X[4] <= 210.5\ngini = 0.857\nsamples = 7\nvalue = [0, 0, 0 ... 0, 0, 0]"] ;
728 -> 732 ;
733 [label="gini = 0.0\nsamples = 1\nvalue = [0, 0, 0 ... 0, 0, 0]"] ;
732 -> 733 ;
734 [label="X[38] <= 36.35\ngini = 0.833\nsamples = 6\nvalue = [0, 0, 0 ... 0, 0, 0]"] ;
732 -> 734 ;
735 [label="gini = 0.0\nsamples = 1\nvalue = [0, 0, 0 ... 0, 0, 0]"] ;
734 -> 735 ;
736 [label="X[0] <= 3862.5\ngini = 0.8\nsamples = 5\nvalue = [0, 0, 0 ... 0, 0, 0]"] ;
734 -> 736 ;
737 [label="gini = 0.0\nsamples = 1\nvalue = [0, 0, 0 ... 0, 0, 0]"] ;
736 -> 737 ;
738 [label="X[39] <= 27.55\ngini = 0.75\nsamples = 4\nvalue = [0, 0, 0 ... 0, 0, 0]"] ;
736 -> 738 ;
739 [label="gini = 0.0\nsamples = 1\nvalue = [0, 0, 0 ... 0, 0, 0]"] ;
738 -> 739 ;
740 [label="X[39] <= 27.75\ngini = 0.667\nsamples = 3\nvalue = [0, 0, 0 ... 0, 0, 0]"] ;
738 -> 740 ;
741 [label="X[38] <= 37.65\ngini = 0.5\nsamples = 2\nvalue = [0, 0, 0 ... 0, 0, 0]"] ;
740 -> 741 ;
742 [label="gini = 0.0\nsamples = 1\nvalue = [0, 0, 0 ... 0, 0, 0]"] ;
741 -> 742 ;
743 [label="gini = 0.0\nsamples = 1\nvalue = [0, 0, 0 ... 0, 0, 0]"] ;
741 -> 743 ;
744 [label="gini = 0.0\nsamples = 1\nvalue = [0, 0, 0 ... 0, 0, 0]"] ;
740 -> 744 ;
745 [label="X[39] <= 26.05\ngini = 0.667\nsamples = 3\nvalue = [0, 0, 0 ... 0, 0, 0]"] ;
705 -> 745 ;
746 [label="gini = 0.0\nsamples = 1\nvalue = [0, 0, 0 ... 0, 0, 0]"] ;
745 -> 746 ;
747 [label="X[0] <= 3487.5\ngini = 0.5\nsamples = 2\nvalue = [0, 0, 0 ... 0, 0, 0]"] ;
745 -> 747 ;
748 [label="gini = 0.0\nsamples = 1\nvalue = [0, 0, 0 ... 0, 0, 0]"] ;
747 -> 748 ;
749 [label="gini = 0.0\nsamples = 1\nvalue = [0, 0, 0 ... 0, 0, 0]"] ;
747 -> 749 ;
750 [label="X[0] <= 6038.5\ngini = 0.93\nsamples = 16\nvalue = [0, 0, 0 ... 0, 0, 0]"] ;
704 -> 750 ;
751 [label="X[32] <= 0.5\ngini = 0.88\nsamples = 10\nvalue = [0, 0, 0 ... 0, 0, 0]"] ;
750 -> 751 ;
752 [label="X[4] <= 225.5\ngini = 0.816\nsamples = 7\nvalue = [0, 0, 0 ... 0, 0, 0]"] ;
751 -> 752 ;
753 [label="X[38] <= 32.45\ngini = 0.72\nsamples = 5\nvalue = [0, 0, 0 ... 0, 0, 0]"] ;
752 -> 753 ;
754 [label="gini = 0.0\nsamples = 1\nvalue = [0, 0, 0 ... 0, 0, 0]"] ;
753 -> 754 ;
755 [label="X[0] <= 4781.0\ngini = 0.625\nsamples = 4\nvalue = [0, 0, 0 ... 0, 0, 0]"] ;
753 -> 755 ;
756 [label="gini = 0.0\nsamples = 1\nvalue = [0, 0, 0 ... 0, 0, 0]"] ;
755 -> 756 ;
757 [label="X[4] <= 206.5\ngini = 0.667\nsamples = 3\nvalue = [0, 0, 0 ... 0, 0, 0]"] ;
755 -> 757 ;
758 [label="gini = 0.0\nsamples = 1\nvalue = [0, 0, 0 ... 0, 0, 0]"] ;
757 -> 758 ;
759 [label="X[39] <= 25.35\ngini = 0.5\nsamples = 2\nvalue = [0, 0, 0 ... 0, 0, 0]"] ;
757 -> 759 ;
760 [label="gini = 0.0\nsamples = 1\nvalue = [0, 0, 0 ... 0, 0, 0]"] ;
759 -> 760 ;
761 [label="gini = 0.0\nsamples = 1\nvalue = [0, 0, 0 ... 0, 0, 0]"] ;
759 -> 761 ;
762 [label="X[38] <= 37.45\ngini = 0.5\nsamples = 2\nvalue = [0, 0, 0 ... 0, 0, 0]"] ;
752 -> 762 ;
763 [label="gini = 0.0\nsamples = 1\nvalue = [0, 0, 0 ... 0, 0, 0]"] ;
762 -> 763 ;
764 [label="gini = 0.0\nsamples = 1\nvalue = [0, 0, 0 ... 0, 0, 0]"] ;
762 -> 764 ;
765 [label="X[4] <= 201.5\ngini = 0.667\nsamples = 3\nvalue = [0, 0, 0 ... 0, 0, 0]"] ;
751 -> 765 ;
766 [label="gini = 0.0\nsamples = 1\nvalue = [0, 0, 0 ... 0, 0, 0]"] ;
765 -> 766 ;
767 [label="X[31] <= 0.35\ngini = 0.5\nsamples = 2\nvalue = [0, 0, 0 ... 0, 0, 0]"] ;
765 -> 767 ;
768 [label="gini = 0.0\nsamples = 1\nvalue = [0, 0, 0 ... 0, 0, 0]"] ;
767 -> 768 ;
769 [label="gini = 0.0\nsamples = 1\nvalue = [0, 0, 0 ... 0, 0, 0]"] ;
767 -> 769 ;
770 [label="X[38] <= 34.55\ngini = 0.833\nsamples = 6\nvalue = [0, 0, 0 ... 0, 0, 0]"] ;
750 -> 770 ;
771 [label="gini = 0.0\nsamples = 1\nvalue = [0, 0, 0 ... 0, 0, 0]"] ;
770 -> 771 ;
772 [label="X[38] <= 35.0\ngini = 0.8\nsamples = 5\nvalue = [0, 0, 0 ... 0, 0, 0]"] ;
770 -> 772 ;
773 [label="gini = 0.0\nsamples = 1\nvalue = [0, 0, 0 ... 0, 0, 0]"] ;
772 -> 773 ;
774 [label="X[38] <= 35.4\ngini = 0.75\nsamples = 4\nvalue = [0, 0, 0 ... 0, 0, 0]"] ;
772 -> 774 ;
775 [label="gini = 0.0\nsamples = 1\nvalue = [0, 0, 0 ... 0, 0, 0]"] ;
774 -> 775 ;
776 [label="X[38] <= 35.9\ngini = 0.667\nsamples = 3\nvalue = [0, 0, 0 ... 0, 0, 0]"] ;
774 -> 776 ;
777 [label="gini = 0.0\nsamples = 1\nvalue = [0, 0, 0 ... 0, 0, 0]"] ;
776 -> 777 ;
778 [label="X[38] <= 36.8\ngini = 0.5\nsamples = 2\nvalue = [0, 0, 0 ... 0, 0, 0]"] ;
776 -> 778 ;
779 [label="gini = 0.0\nsamples = 1\nvalue = [0, 0, 0 ... 0, 0, 0]"] ;
778 -> 779 ;
780 [label="gini = 0.0\nsamples = 1\nvalue = [0, 0, 0 ... 0, 0, 0]"] ;
778 -> 780 ;
781 [label="X[0] <= 6050.5\ngini = 0.923\nsamples = 13\nvalue = [0, 0, 0 ... 0, 0, 0]"] ;
687 -> 781 ;
782 [label="gini = 0.0\nsamples = 1\nvalue = [0, 0, 0 ... 0, 0, 0]"] ;
781 -> 782 ;
783 [label="X[4] <= 212.5\ngini = 0.917\nsamples = 12\nvalue = [0, 0, 0 ... 0, 0, 0]"] ;
781 -> 783 ;
784 [label="gini = 0.0\nsamples = 1\nvalue = [0, 0, 0 ... 0, 0, 0]"] ;
783 -> 784 ;
785 [label="X[38] <= 36.0\ngini = 0.909\nsamples = 11\nvalue = [0, 0, 0 ... 0, 0, 0]"] ;
783 -> 785 ;
786 [label="X[0] <= 6058.5\ngini = 0.5\nsamples = 2\nvalue = [0, 0, 0 ... 0, 0, 0]"] ;
785 -> 786 ;
787 [label="gini = 0.0\nsamples = 1\nvalue = [0, 0, 0 ... 0, 0, 0]"] ;
786 -> 787 ;
788 [label="gini = 0.0\nsamples = 1\nvalue = [0, 0, 0 ... 0, 0, 0]"] ;
786 -> 788 ;
789 [label="X[0] <= 6052.5\ngini = 0.889\nsamples = 9\nvalue = [0, 0, 0 ... 0, 0, 0]"] ;
785 -> 789 ;
790 [label="gini = 0.0\nsamples = 1\nvalue = [0, 0, 0 ... 0, 0, 0]"] ;
789 -> 790 ;
791 [label="X[4] <= 214.5\ngini = 0.875\nsamples = 8\nvalue = [0, 0, 0 ... 0, 0, 0]"] ;
789 -> 791 ;
792 [label="gini = 0.0\nsamples = 1\nvalue = [0, 0, 0 ... 0, 0, 0]"] ;
791 -> 792 ;
793 [label="X[39] <= 26.0\ngini = 0.857\nsamples = 7\nvalue = [0, 0, 0 ... 0, 0, 0]"] ;
791 -> 793 ;
794 [label="gini = 0.0\nsamples = 1\nvalue = [0, 0, 0 ... 0, 0, 0]"] ;
793 -> 794 ;
795 [label="X[4] <= 217.0\ngini = 0.833\nsamples = 6\nvalue = [0, 0, 0 ... 0, 0, 0]"] ;
793 -> 795 ;
796 [label="gini = 0.0\nsamples = 1\nvalue = [0, 0, 0 ... 0, 0, 0]"] ;
795 -> 796 ;
797 [label="X[4] <= 219.5\ngini = 0.8\nsamples = 5\nvalue = [0, 0, 0 ... 0, 0, 0]"] ;
795 -> 797 ;
798 [label="gini = 0.0\nsamples = 1\nvalue = [0, 0, 0 ... 0, 0, 0]"] ;
797 -> 798 ;
799 [label="X[0] <= 6060.0\ngini = 0.75\nsamples = 4\nvalue = [0, 0, 0 ... 0, 0, 0]"] ;
797 -> 799 ;
800 [label="gini = 0.0\nsamples = 1\nvalue = [0, 0, 0 ... 0, 0, 0]"] ;
799 -> 800 ;
801 [label="X[4] <= 223.5\ngini = 0.667\nsamples = 3\nvalue = [0, 0, 0 ... 0, 0, 0]"] ;
799 -> 801 ;
802 [label="gini = 0.0\nsamples = 1\nvalue = [0, 0, 0 ... 0, 0, 0]"] ;
801 -> 802 ;
803 [label="X[0] <= 6064.5\ngini = 0.5\nsamples = 2\nvalue = [0, 0, 0 ... 0, 0, 0]"] ;
801 -> 803 ;
804 [label="gini = 0.0\nsamples = 1\nvalue = [0, 0, 0 ... 0, 0, 0]"] ;
803 -> 804 ;
805 [label="gini = 0.0\nsamples = 1\nvalue = [0, 0, 0 ... 0, 0, 0]"] ;
803 -> 805 ;
806 [label="X[38] <= 30.55\ngini = 0.955\nsamples = 24\nvalue = [0, 0, 0 ... 0, 0, 0]"] ;
340 -> 806 ;
807 [label="X[43] <= 1.5\ngini = 0.844\nsamples = 8\nvalue = [0, 0, 0 ... 0, 0, 0]"] ;
806 -> 807 ;
808 [label="X[4] <= 242.5\ngini = 0.625\nsamples = 4\nvalue = [0, 0, 0 ... 0, 0, 0]"] ;
807 -> 808 ;
809 [label="X[31] <= 0.25\ngini = 0.444\nsamples = 3\nvalue = [0, 0, 0 ... 0, 0, 0]"] ;
808 -> 809 ;
810 [label="X[0] <= 5709.5\ngini = 0.5\nsamples = 2\nvalue = [0, 0, 0 ... 0, 0, 0]"] ;
809 -> 810 ;
811 [label="gini = 0.0\nsamples = 1\nvalue = [0, 0, 0 ... 0, 0, 0]"] ;
810 -> 811 ;
812 [label="gini = 0.0\nsamples = 1\nvalue = [0, 0, 0 ... 0, 0, 0]"] ;
810 -> 812 ;
813 [label="gini = 0.0\nsamples = 1\nvalue = [0, 0, 0 ... 0, 0, 0]"] ;
809 -> 813 ;
814 [label="gini = 0.0\nsamples = 1\nvalue = [0, 0, 0 ... 0, 0, 0]"] ;
808 -> 814 ;
815 [label="X[31] <= 0.25\ngini = 0.75\nsamples = 4\nvalue = [0, 0, 0 ... 0, 0, 0]"] ;
807 -> 815 ;
816 [label="X[39] <= 17.0\ngini = 0.667\nsamples = 3\nvalue = [0, 0, 0 ... 0, 0, 0]"] ;
815 -> 816 ;
817 [label="gini = 0.0\nsamples = 1\nvalue = [0, 0, 0 ... 0, 0, 0]"] ;
816 -> 817 ;
818 [label="X[0] <= 3519.5\ngini = 0.5\nsamples = 2\nvalue = [0, 0, 0 ... 0, 0, 0]"] ;
816 -> 818 ;
819 [label="gini = 0.0\nsamples = 1\nvalue = [0, 0, 0 ... 0, 0, 0]"] ;
818 -> 819 ;
820 [label="gini = 0.0\nsamples = 1\nvalue = [0, 0, 0 ... 0, 0, 0]"] ;
818 -> 820 ;
821 [label="gini = 0.0\nsamples = 1\nvalue = [0, 0, 0 ... 0, 0, 0]"] ;
815 -> 821 ;
822 [label="X[40] <= 5.0\ngini = 0.938\nsamples = 16\nvalue = [0, 0, 0 ... 0, 0, 0]"] ;
806 -> 822 ;
823 [label="X[31] <= 0.35\ngini = 0.875\nsamples = 8\nvalue = [0, 0, 0 ... 0, 0, 0]"] ;
822 -> 823 ;
824 [label="X[0] <= 5891.0\ngini = 0.8\nsamples = 5\nvalue = [0, 0, 0 ... 0, 0, 0]"] ;
823 -> 824 ;
825 [label="gini = 0.0\nsamples = 1\nvalue = [0, 0, 0 ... 0, 0, 0]"] ;
824 -> 825 ;
826 [label="X[4] <= 232.5\ngini = 0.75\nsamples = 4\nvalue = [0, 0, 0 ... 0, 0, 0]"] ;
824 -> 826 ;
827 [label="gini = 0.0\nsamples = 1\nvalue = [0, 0, 0 ... 0, 0, 0]"] ;
826 -> 827 ;
828 [label="X[4] <= 233.5\ngini = 0.667\nsamples = 3\nvalue = [0, 0, 0 ... 0, 0, 0]"] ;
826 -> 828 ;
829 [label="gini = 0.0\nsamples = 1\nvalue = [0, 0, 0 ... 0, 0, 0]"] ;
828 -> 829 ;
830 [label="X[38] <= 35.45\ngini = 0.5\nsamples = 2\nvalue = [0, 0, 0 ... 0, 0, 0]"] ;
828 -> 830 ;
831 [label="gini = 0.0\nsamples = 1\nvalue = [0, 0, 0 ... 0, 0, 0]"] ;
830 -> 831 ;
832 [label="gini = 0.0\nsamples = 1\nvalue = [0, 0, 0 ... 0, 0, 0]"] ;
830 -> 832 ;
833 [label="X[39] <= 24.85\ngini = 0.667\nsamples = 3\nvalue = [0, 0, 0 ... 0, 0, 0]"] ;
823 -> 833 ;
834 [label="gini = 0.0\nsamples = 1\nvalue = [0, 0, 0 ... 0, 0, 0]"] ;
833 -> 834 ;
835 [label="X[38] <= 32.1\ngini = 0.5\nsamples = 2\nvalue = [0, 0, 0 ... 0, 0, 0]"] ;
833 -> 835 ;
836 [label="gini = 0.0\nsamples = 1\nvalue = [0, 0, 0 ... 0, 0, 0]"] ;
835 -> 836 ;
837 [label="gini = 0.0\nsamples = 1\nvalue = [0, 0, 0 ... 0, 0, 0]"] ;
835 -> 837 ;
838 [label="X[4] <= 232.5\ngini = 0.875\nsamples = 8\nvalue = [0, 0, 0 ... 0, 0, 0]"] ;
822 -> 838 ;
839 [label="gini = 0.0\nsamples = 1\nvalue = [0, 0, 0 ... 0, 0, 0]"] ;
838 -> 839 ;
840 [label="X[31] <= 0.35\ngini = 0.857\nsamples = 7\nvalue = [0, 0, 0 ... 0, 0, 0]"] ;
838 -> 840 ;
841 [label="X[38] <= 31.0\ngini = 0.75\nsamples = 4\nvalue = [0, 0, 0 ... 0, 0, 0]"] ;
840 -> 841 ;
842 [label="gini = 0.0\nsamples = 1\nvalue = [0, 0, 0 ... 0, 0, 0]"] ;
841 -> 842 ;
843 [label="X[0] <= 3702.0\ngini = 0.667\nsamples = 3\nvalue = [0, 0, 0 ... 0, 0, 0]"] ;
841 -> 843 ;
844 [label="gini = 0.0\nsamples = 1\nvalue = [0, 0, 0 ... 0, 0, 0]"] ;
843 -> 844 ;
845 [label="X[4] <= 237.5\ngini = 0.5\nsamples = 2\nvalue = [0, 0, 0 ... 0, 0, 0]"] ;
843 -> 845 ;
846 [label="gini = 0.0\nsamples = 1\nvalue = [0, 0, 0 ... 0, 0, 0]"] ;
845 -> 846 ;
847 [label="gini = 0.0\nsamples = 1\nvalue = [0, 0, 0 ... 0, 0, 0]"] ;
845 -> 847 ;
848 [label="X[39] <= 24.85\ngini = 0.667\nsamples = 3\nvalue = [0, 0, 0 ... 0, 0, 0]"] ;
840 -> 848 ;
849 [label="gini = 0.0\nsamples = 1\nvalue = [0, 0, 0 ... 0, 0, 0]"] ;
848 -> 849 ;
850 [label="X[39] <= 26.05\ngini = 0.5\nsamples = 2\nvalue = [0, 0, 0 ... 0, 0, 0]"] ;
848 -> 850 ;
851 [label="gini = 0.0\nsamples = 1\nvalue = [0, 0, 0 ... 0, 0, 0]"] ;
850 -> 851 ;
852 [label="gini = 0.0\nsamples = 1\nvalue = [0, 0, 0 ... 0, 0, 0]"] ;
850 -> 852 ;
853 [label="X[31] <= 5.5\ngini = 0.969\nsamples = 36\nvalue = [0, 0, 0 ... 0, 0, 0]"] ;
339 -> 853 ;
854 [label="X[0] <= 3509.0\ngini = 0.625\nsamples = 4\nvalue = [0, 0, 0 ... 0, 0, 0]"] ;
853 -> 854 ;
855 [label="gini = 0.0\nsamples = 1\nvalue = [0, 0, 0 ... 0, 0, 0]"] ;
854 -> 855 ;
856 [label="X[0] <= 5699.0\ngini = 0.444\nsamples = 3\nvalue = [0, 0, 0 ... 0, 0, 0]"] ;
854 -> 856 ;
857 [label="gini = 0.0\nsamples = 2\nvalue = [0, 0, 0 ... 0, 0, 0]"] ;
856 -> 857 ;
858 [label="gini = 0.0\nsamples = 1\nvalue = [0, 0, 0 ... 0, 0, 0]"] ;
856 -> 858 ;
859 [label="X[0] <= 3336.0\ngini = 0.969\nsamples = 32\nvalue = [0, 0, 0 ... 0, 0, 0]"] ;
853 -> 859 ;
860 [label="gini = 0.0\nsamples = 1\nvalue = [0, 0, 0 ... 0, 0, 0]"] ;
859 -> 860 ;
861 [label="X[0] <= 3403.0\ngini = 0.968\nsamples = 31\nvalue = [0, 0, 0 ... 0, 0, 0]"] ;
859 -> 861 ;
862 [label="gini = 0.0\nsamples = 1\nvalue = [0, 0, 0 ... 0, 0, 0]"] ;
861 -> 862 ;
863 [label="X[14] <= 0.5\ngini = 0.967\nsamples = 30\nvalue = [0, 0, 0 ... 0, 0, 0]"] ;
861 -> 863 ;
864 [label="X[39] <= 1.95\ngini = 0.929\nsamples = 14\nvalue = [0, 0, 0 ... 0, 0, 0]"] ;
863 -> 864 ;
865 [label="gini = 0.0\nsamples = 1\nvalue = [0, 0, 0 ... 0, 0, 0]"] ;
864 -> 865 ;
866 [label="X[31] <= 6.95\ngini = 0.923\nsamples = 13\nvalue = [0, 0, 0 ... 0, 0, 0]"] ;
864 -> 866 ;
867 [label="gini = 0.0\nsamples = 1\nvalue = [0, 0, 0 ... 0, 0, 0]"] ;
866 -> 867 ;
868 [label="X[31] <= 8.15\ngini = 0.917\nsamples = 12\nvalue = [0, 0, 0 ... 0, 0, 0]"] ;
866 -> 868 ;
869 [label="gini = 0.0\nsamples = 1\nvalue = [0, 0, 0 ... 0, 0, 0]"] ;
868 -> 869 ;
870 [label="X[4] <= 101.0\ngini = 0.909\nsamples = 11\nvalue = [0, 0, 0 ... 0, 0, 0]"] ;
868 -> 870 ;
871 [label="gini = 0.0\nsamples = 1\nvalue = [0, 0, 0 ... 0, 0, 0]"] ;
870 -> 871 ;
872 [label="X[39] <= 19.5\ngini = 0.9\nsamples = 10\nvalue = [0, 0, 0 ... 0, 0, 0]"] ;
870 -> 872 ;
873 [label="gini = 0.0\nsamples = 1\nvalue = [0, 0, 0 ... 0, 0, 0]"] ;
872 -> 873 ;
874 [label="X[31] <= 9.95\ngini = 0.889\nsamples = 9\nvalue = [0, 0, 0 ... 0, 0, 0]"] ;
872 -> 874 ;
875 [label="gini = 0.0\nsamples = 1\nvalue = [0, 0, 0 ... 0, 0, 0]"] ;
874 -> 875 ;
876 [label="X[38] <= 27.0\ngini = 0.875\nsamples = 8\nvalue = [0, 0, 0 ... 0, 0, 0]"] ;
874 -> 876 ;
877 [label="gini = 0.0\nsamples = 1\nvalue = [0, 0, 0 ... 0, 0, 0]"] ;
876 -> 877 ;
878 [label="X[32] <= 0.5\ngini = 0.857\nsamples = 7\nvalue = [0, 0, 0 ... 0, 0, 0]"] ;
876 -> 878 ;
879 [label="X[39] <= 21.6\ngini = 0.5\nsamples = 2\nvalue = [0, 0, 0 ... 0, 0, 0]"] ;
878 -> 879 ;
880 [label="gini = 0.0\nsamples = 1\nvalue = [0, 0, 0 ... 0, 0, 0]"] ;
879 -> 880 ;
881 [label="gini = 0.0\nsamples = 1\nvalue = [0, 0, 0 ... 0, 0, 0]"] ;
879 -> 881 ;
882 [label="X[38] <= 28.55\ngini = 0.8\nsamples = 5\nvalue = [0, 0, 0 ... 0, 0, 0]"] ;
878 -> 882 ;
883 [label="gini = 0.0\nsamples = 1\nvalue = [0, 0, 0 ... 0, 0, 0]"] ;
882 -> 883 ;
884 [label="X[0] <= 3482.5\ngini = 0.75\nsamples = 4\nvalue = [0, 0, 0 ... 0, 0, 0]"] ;
882 -> 884 ;
885 [label="gini = 0.0\nsamples = 1\nvalue = [0, 0, 0 ... 0, 0, 0]"] ;
884 -> 885 ;
886 [label="X[39] <= 24.25\ngini = 0.667\nsamples = 3\nvalue = [0, 0, 0 ... 0, 0, 0]"] ;
884 -> 886 ;
887 [label="gini = 0.0\nsamples = 1\nvalue = [0, 0, 0 ... 0, 0, 0]"] ;
886 -> 887 ;
888 [label="X[38] <= 32.5\ngini = 0.5\nsamples = 2\nvalue = [0, 0, 0 ... 0, 0, 0]"] ;
886 -> 888 ;
889 [label="gini = 0.0\nsamples = 1\nvalue = [0, 0, 0 ... 0, 0, 0]"] ;
888 -> 889 ;
890 [label="gini = 0.0\nsamples = 1\nvalue = [0, 0, 0 ... 0, 0, 0]"] ;
888 -> 890 ;
891 [label="X[4] <= 34.0\ngini = 0.938\nsamples = 16\nvalue = [0, 0, 0 ... 0, 0, 0]"] ;
863 -> 891 ;
892 [label="gini = 0.0\nsamples = 1\nvalue = [0, 0, 0 ... 0, 0, 0]"] ;
891 -> 892 ;
893 [label="X[4] <= 52.0\ngini = 0.933\nsamples = 15\nvalue = [0, 0, 0 ... 0, 0, 0]"] ;
891 -> 893 ;
894 [label="gini = 0.0\nsamples = 1\nvalue = [0, 0, 0 ... 0, 0, 0]"] ;
893 -> 894 ;
895 [label="X[31] <= 6.95\ngini = 0.929\nsamples = 14\nvalue = [0, 0, 0 ... 0, 0, 0]"] ;
893 -> 895 ;
896 [label="gini = 0.0\nsamples = 1\nvalue = [0, 0, 0 ... 0, 0, 0]"] ;
895 -> 896 ;
897 [label="X[39] <= 0.8\ngini = 0.923\nsamples = 13\nvalue = [0, 0, 0 ... 0, 0, 0]"] ;
895 -> 897 ;
898 [label="gini = 0.0\nsamples = 1\nvalue = [0, 0, 0 ... 0, 0, 0]"] ;
897 -> 898 ;
899 [label="X[38] <= 15.85\ngini = 0.917\nsamples = 12\nvalue = [0, 0, 0 ... 0, 0, 0]"] ;
897 -> 899 ;
900 [label="gini = 0.0\nsamples = 1\nvalue = [0, 0, 0 ... 0, 0, 0]"] ;
899 -> 900 ;
901 [label="X[32] <= 0.5\ngini = 0.909\nsamples = 11\nvalue = [0, 0, 0 ... 0, 0, 0]"] ;
899 -> 901 ;
902 [label="X[0] <= 5686.5\ngini = 0.75\nsamples = 4\nvalue = [0, 0, 0 ... 0, 0, 0]"] ;
901 -> 902 ;
903 [label="gini = 0.0\nsamples = 1\nvalue = [0, 0, 0 ... 0, 0, 0]"] ;
902 -> 903 ;
904 [label="X[38] <= 27.65\ngini = 0.667\nsamples = 3\nvalue = [0, 0, 0 ... 0, 0, 0]"] ;
902 -> 904 ;
905 [label="gini = 0.0\nsamples = 1\nvalue = [0, 0, 0 ... 0, 0, 0]"] ;
904 -> 905 ;
906 [label="X[39] <= 21.0\ngini = 0.5\nsamples = 2\nvalue = [0, 0, 0 ... 0, 0, 0]"] ;
904 -> 906 ;
907 [label="gini = 0.0\nsamples = 1\nvalue = [0, 0, 0 ... 0, 0, 0]"] ;
906 -> 907 ;
908 [label="gini = 0.0\nsamples = 1\nvalue = [0, 0, 0 ... 0, 0, 0]"] ;
906 -> 908 ;
909 [label="X[31] <= 8.9\ngini = 0.857\nsamples = 7\nvalue = [0, 0, 0 ... 0, 0, 0]"] ;
901 -> 909 ;
910 [label="gini = 0.0\nsamples = 1\nvalue = [0, 0, 0 ... 0, 0, 0]"] ;
909 -> 910 ;
911 [label="X[4] <= 185.5\ngini = 0.833\nsamples = 6\nvalue = [0, 0, 0 ... 0, 0, 0]"] ;
909 -> 911 ;
912 [label="gini = 0.0\nsamples = 1\nvalue = [0, 0, 0 ... 0, 0, 0]"] ;
911 -> 912 ;
913 [label="X[31] <= 15.05\ngini = 0.8\nsamples = 5\nvalue = [0, 0, 0 ... 0, 0, 0]"] ;
911 -> 913 ;
914 [label="gini = 0.0\nsamples = 1\nvalue = [0, 0, 0 ... 0, 0, 0]"] ;
913 -> 914 ;
915 [label="X[38] <= 25.25\ngini = 0.75\nsamples = 4\nvalue = [0, 0, 0 ... 0, 0, 0]"] ;
913 -> 915 ;
916 [label="gini = 0.0\nsamples = 1\nvalue = [0, 0, 0 ... 0, 0, 0]"] ;
915 -> 916 ;
917 [label="X[38] <= 29.7\ngini = 0.667\nsamples = 3\nvalue = [0, 0, 0 ... 0, 0, 0]"] ;
915 -> 917 ;
918 [label="gini = 0.0\nsamples = 1\nvalue = [0, 0, 0 ... 0, 0, 0]"] ;
917 -> 918 ;
919 [label="X[4] <= 196.0\ngini = 0.5\nsamples = 2\nvalue = [0, 0, 0 ... 0, 0, 0]"] ;
917 -> 919 ;
920 [label="gini = 0.0\nsamples = 1\nvalue = [0, 0, 0 ... 0, 0, 0]"] ;
919 -> 920 ;
921 [label="gini = 0.0\nsamples = 1\nvalue = [0, 0, 0 ... 0, 0, 0]"] ;
919 -> 921 ;
922 [label="X[31] <= 46.85\ngini = 0.95\nsamples = 22\nvalue = [0, 0, 0 ... 0, 0, 0]"] ;
338 -> 922 ;
923 [label="X[38] <= 29.65\ngini = 0.88\nsamples = 10\nvalue = [0, 0, 0 ... 0, 0, 0]"] ;
922 -> 923 ;
924 [label="X[39] <= 20.25\ngini = 0.844\nsamples = 8\nvalue = [0, 0, 0 ... 0, 0, 0]"] ;
923 -> 924 ;
925 [label="X[13] <= 4.5\ngini = 0.5\nsamples = 2\nvalue = [0, 0, 0 ... 0, 0, 0]"] ;
924 -> 925 ;
926 [label="gini = 0.0\nsamples = 1\nvalue = [0, 0, 0 ... 0, 0, 0]"] ;
925 -> 926 ;
927 [label="gini = 0.0\nsamples = 1\nvalue = [0, 0, 0 ... 0, 0, 0]"] ;
925 -> 927 ;
928 [label="X[0] <= 3511.0\ngini = 0.778\nsamples = 6\nvalue = [0, 0, 0 ... 0, 0, 0]"] ;
924 -> 928 ;
929 [label="gini = 0.0\nsamples = 1\nvalue = [0, 0, 0 ... 0, 0, 0]"] ;
928 -> 929 ;
930 [label="X[30] <= 40344.5\ngini = 0.72\nsamples = 5\nvalue = [0, 0, 0 ... 0, 0, 0]"] ;
928 -> 930 ;
931 [label="X[31] <= 36.7\ngini = 0.667\nsamples = 3\nvalue = [0, 0, 0 ... 0, 0, 0]"] ;
930 -> 931 ;
932 [label="gini = 0.0\nsamples = 1\nvalue = [0, 0, 0 ... 0, 0, 0]"] ;
931 -> 932 ;
933 [label="X[39] <= 21.65\ngini = 0.5\nsamples = 2\nvalue = [0, 0, 0 ... 0, 0, 0]"] ;
931 -> 933 ;
934 [label="gini = 0.0\nsamples = 1\nvalue = [0, 0, 0 ... 0, 0, 0]"] ;
933 -> 934 ;
935 [label="gini = 0.0\nsamples = 1\nvalue = [0, 0, 0 ... 0, 0, 0]"] ;
933 -> 935 ;
936 [label="X[31] <= 40.0\ngini = 0.5\nsamples = 2\nvalue = [0, 0, 0 ... 0, 0, 0]"] ;
930 -> 936 ;
937 [label="gini = 0.0\nsamples = 1\nvalue = [0, 0, 0 ... 0, 0, 0]"] ;
936 -> 937 ;
938 [label="gini = 0.0\nsamples = 1\nvalue = [0, 0, 0 ... 0, 0, 0]"] ;
936 -> 938 ;
939 [label="X[14] <= 0.5\ngini = 0.5\nsamples = 2\nvalue = [0, 0, 0 ... 0, 0, 0]"] ;
923 -> 939 ;
940 [label="gini = 0.0\nsamples = 1\nvalue = [0, 0, 0 ... 0, 0, 0]"] ;
939 -> 940 ;
941 [label="gini = 0.0\nsamples = 1\nvalue = [0, 0, 0 ... 0, 0, 0]"] ;
939 -> 941 ;
942 [label="X[31] <= 51.4\ngini = 0.917\nsamples = 12\nvalue = [0, 0, 0 ... 0, 0, 0]"] ;
922 -> 942 ;
943 [label="X[40] <= 5.0\ngini = 0.5\nsamples = 2\nvalue = [0, 0, 0 ... 0, 0, 0]"] ;
942 -> 943 ;
944 [label="gini = 0.0\nsamples = 1\nvalue = [0, 0, 0 ... 0, 0, 0]"] ;
943 -> 944 ;
945 [label="gini = 0.0\nsamples = 1\nvalue = [0, 0, 0 ... 0, 0, 0]"] ;
943 -> 945 ;
946 [label="X[31] <= 59.0\ngini = 0.9\nsamples = 10\nvalue = [0, 0, 0 ... 0, 0, 0]"] ;
942 -> 946 ;
947 [label="X[13] <= 4.5\ngini = 0.5\nsamples = 2\nvalue = [0, 0, 0 ... 0, 0, 0]"] ;
946 -> 947 ;
948 [label="gini = 0.0\nsamples = 1\nvalue = [0, 0, 0 ... 0, 0, 0]"] ;
947 -> 948 ;
949 [label="gini = 0.0\nsamples = 1\nvalue = [0, 0, 0 ... 0, 0, 0]"] ;
947 -> 949 ;
950 [label="X[0] <= 3489.0\ngini = 0.875\nsamples = 8\nvalue = [0, 0, 0 ... 0, 0, 0]"] ;
946 -> 950 ;
951 [label="gini = 0.0\nsamples = 1\nvalue = [0, 0, 0 ... 0, 0, 0]"] ;
950 -> 951 ;
952 [label="X[26] <= 0.5\ngini = 0.857\nsamples = 7\nvalue = [0, 0, 0 ... 0, 0, 0]"] ;
950 -> 952 ;
953 [label="X[31] <= 67.45\ngini = 0.75\nsamples = 4\nvalue = [0, 0, 0 ... 0, 0, 0]"] ;
952 -> 953 ;
954 [label="gini = 0.0\nsamples = 1\nvalue = [0, 0, 0 ... 0, 0, 0]"] ;
953 -> 954 ;
955 [label="X[38] <= 28.35\ngini = 0.667\nsamples = 3\nvalue = [0, 0, 0 ... 0, 0, 0]"] ;
953 -> 955 ;
956 [label="gini = 0.0\nsamples = 1\nvalue = [0, 0, 0 ... 0, 0, 0]"] ;
955 -> 956 ;
957 [label="X[4] <= 241.0\ngini = 0.5\nsamples = 2\nvalue = [0, 0, 0 ... 0, 0, 0]"] ;
955 -> 957 ;
958 [label="gini = 0.0\nsamples = 1\nvalue = [0, 0, 0 ... 0, 0, 0]"] ;
957 -> 958 ;
959 [label="gini = 0.0\nsamples = 1\nvalue = [0, 0, 0 ... 0, 0, 0]"] ;
957 -> 959 ;
960 [label="X[38] <= 27.05\ngini = 0.667\nsamples = 3\nvalue = [0, 0, 0 ... 0, 0, 0]"] ;
952 -> 960 ;
961 [label="gini = 0.0\nsamples = 1\nvalue = [0, 0, 0 ... 0, 0, 0]"] ;
960 -> 961 ;
962 [label="X[38] <= 29.05\ngini = 0.5\nsamples = 2\nvalue = [0, 0, 0 ... 0, 0, 0]"] ;
960 -> 962 ;
963 [label="gini = 0.0\nsamples = 1\nvalue = [0, 0, 0 ... 0, 0, 0]"] ;
962 -> 963 ;
964 [label="gini = 0.0\nsamples = 1\nvalue = [0, 0, 0 ... 0, 0, 0]"] ;
962 -> 964 ;
965 [label="X[38] <= -0.35\ngini = 0.93\nsamples = 16\nvalue = [0, 0, 0 ... 0, 0, 0]"] ;
337 -> 965 ;
966 [label="X[33] <= 1.55\ngini = 0.875\nsamples = 8\nvalue = [0, 0, 0 ... 0, 0, 0]"] ;
965 -> 966 ;
967 [label="X[13] <= 4.5\ngini = 0.5\nsamples = 2\nvalue = [0, 0, 0 ... 0, 0, 0]"] ;
966 -> 967 ;
968 [label="gini = 0.0\nsamples = 1\nvalue = [0, 0, 0 ... 0, 0, 0]"] ;
967 -> 968 ;
969 [label="gini = 0.0\nsamples = 1\nvalue = [0, 0, 0 ... 0, 0, 0]"] ;
967 -> 969 ;
970 [label="X[0] <= 3481.5\ngini = 0.833\nsamples = 6\nvalue = [0, 0, 0 ... 0, 0, 0]"] ;
966 -> 970 ;
971 [label="gini = 0.0\nsamples = 1\nvalue = [0, 0, 0 ... 0, 0, 0]"] ;
970 -> 971 ;
972 [label="X[43] <= 1.5\ngini = 0.8\nsamples = 5\nvalue = [0, 0, 0 ... 0, 0, 0]"] ;
970 -> 972 ;
973 [label="X[33] <= 3.05\ngini = 0.667\nsamples = 3\nvalue = [0, 0, 0 ... 0, 0, 0]"] ;
972 -> 973 ;
974 [label="gini = 0.0\nsamples = 1\nvalue = [0, 0, 0 ... 0, 0, 0]"] ;
973 -> 974 ;
975 [label="X[33] <= 4.1\ngini = 0.5\nsamples = 2\nvalue = [0, 0, 0 ... 0, 0, 0]"] ;
973 -> 975 ;
976 [label="gini = 0.0\nsamples = 1\nvalue = [0, 0, 0 ... 0, 0, 0]"] ;
975 -> 976 ;
977 [label="gini = 0.0\nsamples = 1\nvalue = [0, 0, 0 ... 0, 0, 0]"] ;
975 -> 977 ;
978 [label="X[33] <= 3.05\ngini = 0.5\nsamples = 2\nvalue = [0, 0, 0 ... 0, 0, 0]"] ;
972 -> 978 ;
979 [label="gini = 0.0\nsamples = 1\nvalue = [0, 0, 0 ... 0, 0, 0]"] ;
978 -> 979 ;
980 [label="gini = 0.0\nsamples = 1\nvalue = [0, 0, 0 ... 0, 0, 0]"] ;
978 -> 980 ;
981 [label="X[33] <= 2.95\ngini = 0.844\nsamples = 8\nvalue = [0, 0, 0 ... 0, 0, 0]"] ;
965 -> 981 ;
982 [label="X[4] <= 24.5\ngini = 0.625\nsamples = 4\nvalue = [0, 0, 0 ... 0, 0, 0]"] ;
981 -> 982 ;
983 [label="X[30] <= 40344.5\ngini = 0.5\nsamples = 2\nvalue = [0, 0, 0 ... 0, 0, 0]"] ;
982 -> 983 ;
984 [label="gini = 0.0\nsamples = 1\nvalue = [0, 0, 0 ... 0, 0, 0]"] ;
983 -> 984 ;
985 [label="gini = 0.0\nsamples = 1\nvalue = [0, 0, 0 ... 0, 0, 0]"] ;
983 -> 985 ;
986 [label="X[26] <= 0.5\ngini = 0.5\nsamples = 2\nvalue = [0, 0, 0 ... 0, 0, 0]"] ;
982 -> 986 ;
987 [label="gini = 0.0\nsamples = 1\nvalue = [0, 0, 0 ... 0, 0, 0]"] ;
986 -> 987 ;
988 [label="gini = 0.0\nsamples = 1\nvalue = [0, 0, 0 ... 0, 0, 0]"] ;
986 -> 988 ;
989 [label="X[5] <= 84.471\ngini = 0.75\nsamples = 4\nvalue = [0, 0, 0 ... 0, 0, 0]"] ;
981 -> 989 ;
990 [label="X[4] <= 26.5\ngini = 0.5\nsamples = 2\nvalue = [0, 0, 0 ... 0, 0, 0]"] ;
989 -> 990 ;
991 [label="gini = 0.0\nsamples = 1\nvalue = [0, 0, 0 ... 0, 0, 0]"] ;
990 -> 991 ;
992 [label="gini = 0.0\nsamples = 1\nvalue = [0, 0, 0 ... 0, 0, 0]"] ;
990 -> 992 ;
993 [label="X[31] <= 1.7\ngini = 0.5\nsamples = 2\nvalue = [0, 0, 0 ... 0, 0, 0]"] ;
989 -> 993 ;
994 [label="gini = 0.0\nsamples = 1\nvalue = [0, 0, 0 ... 0, 0, 0]"] ;
993 -> 994 ;
995 [label="gini = 0.0\nsamples = 1\nvalue = [0, 0, 0 ... 0, 0, 0]"] ;
993 -> 995 ;
996 [label="X[39] <= -10.85\ngini = 0.998\nsamples = 971\nvalue = [0, 0, 0 ... 0, 0, 0]"] ;
6 -> 996 ;
997 [label="X[39] <= -11.25\ngini = 0.864\nsamples = 9\nvalue = [0, 0, 0 ... 0, 0, 0]"] ;
996 -> 997 ;
998 [label="X[0] <= 4177.5\ngini = 0.667\nsamples = 3\nvalue = [0, 0, 0 ... 0, 0, 0]"] ;
997 -> 998 ;
999 [label="gini = 0.0\nsamples = 1\nvalue = [0, 0, 0 ... 0, 0, 0]"] ;
998 -> 999 ;
1000 [label="X[45] <= 0.5\ngini = 0.5\nsamples = 2\nvalue = [0, 0, 0 ... 0, 0, 0]"] ;
998 -> 1000 ;
1001 [label="gini = 0.0\nsamples = 1\nvalue = [0, 0, 0 ... 0, 0, 0]"] ;
1000 -> 1001 ;
1002 [label="gini = 0.0\nsamples = 1\nvalue = [0, 0, 0 ... 0, 0, 0]"] ;
1000 -> 1002 ;
1003 [label="X[13] <= 3.0\ngini = 0.778\nsamples = 6\nvalue = [0, 0, 0 ... 0, 0, 0]"] ;
997 -> 1003 ;
1004 [label="X[39] <= -11.05\ngini = 0.5\nsamples = 2\nvalue = [0, 0, 0 ... 0, 0, 0]"] ;
1003 -> 1004 ;
1005 [label="gini = 0.0\nsamples = 1\nvalue = [0, 0, 0 ... 0, 0, 0]"] ;
1004 -> 1005 ;
1006 [label="gini = 0.0\nsamples = 1\nvalue = [0, 0, 0 ... 0, 0, 0]"] ;
1004 -> 1006 ;
1007 [label="X[0] <= 3821.5\ngini = 0.625\nsamples = 4\nvalue = [0, 0, 0 ... 0, 0, 0]"] ;
1003 -> 1007 ;
1008 [label="gini = 0.0\nsamples = 1\nvalue = [0, 0, 0 ... 0, 0, 0]"] ;
1007 -> 1008 ;
1009 [label="X[38] <= -1.6\ngini = 0.667\nsamples = 3\nvalue = [0, 0, 0 ... 0, 0, 0]"] ;
1007 -> 1009 ;
1010 [label="X[13] <= 4.5\ngini = 0.5\nsamples = 2\nvalue = [0, 0, 0 ... 0, 0, 0]"] ;
1009 -> 1010 ;
1011 [label="gini = 0.0\nsamples = 1\nvalue = [0, 0, 0 ... 0, 0, 0]"] ;
1010 -> 1011 ;
1012 [label="gini = 0.0\nsamples = 1\nvalue = [0, 0, 0 ... 0, 0, 0]"] ;
1010 -> 1012 ;
1013 [label="gini = 0.0\nsamples = 1\nvalue = [0, 0, 0 ... 0, 0, 0]"] ;
1009 -> 1013 ;
1014 [label="X[0] <= 3365.5\ngini = 0.998\nsamples = 962\nvalue = [0, 0, 0 ... 0, 0, 0]"] ;
996 -> 1014 ;
1015 [label="X[39] <= -1.15\ngini = 0.924\nsamples = 15\nvalue = [0, 0, 0 ... 0, 0, 0]"] ;
1014 -> 1015 ;
1016 [label="X[38] <= 5.0\ngini = 0.875\nsamples = 8\nvalue = [0, 0, 0 ... 0, 0, 0]"] ;
1015 -> 1016 ;
1017 [label="gini = 0.0\nsamples = 1\nvalue = [0, 0, 0 ... 0, 0, 0]"] ;
1016 -> 1017 ;
1018 [label="X[38] <= 6.35\ngini = 0.857\nsamples = 7\nvalue = [0, 0, 0 ... 0, 0, 0]"] ;
1016 -> 1018 ;
1019 [label="gini = 0.0\nsamples = 1\nvalue = [0, 0, 0 ... 0, 0, 0]"] ;
1018 -> 1019 ;
1020 [label="X[4] <= 63.5\ngini = 0.833\nsamples = 6\nvalue = [0, 0, 0 ... 0, 0, 0]"] ;
1018 -> 1020 ;
1021 [label="gini = 0.0\nsamples = 1\nvalue = [0, 0, 0 ... 0, 0, 0]"] ;
1020 -> 1021 ;
1022 [label="X[38] <= 9.75\ngini = 0.8\nsamples = 5\nvalue = [0, 0, 0 ... 0, 0, 0]"] ;
1020 -> 1022 ;
1023 [label="gini = 0.0\nsamples = 1\nvalue = [0, 0, 0 ... 0, 0, 0]"] ;
1022 -> 1023 ;
1024 [label="X[39] <= -1.65\ngini = 0.75\nsamples = 4\nvalue = [0, 0, 0 ... 0, 0, 0]"] ;
1022 -> 1024 ;
1025 [label="gini = 0.0\nsamples = 1\nvalue = [0, 0, 0 ... 0, 0, 0]"] ;
1024 -> 1025 ;
1026 [label="X[38] <= 13.6\ngini = 0.667\nsamples = 3\nvalue = [0, 0, 0 ... 0, 0, 0]"] ;
1024 -> 1026 ;
1027 [label="gini = 0.0\nsamples = 1\nvalue = [0, 0, 0 ... 0, 0, 0]"] ;
1026 -> 1027 ;
1028 [label="X[38] <= 15.2\ngini = 0.5\nsamples = 2\nvalue = [0, 0, 0 ... 0, 0, 0]"] ;
1026 -> 1028 ;
1029 [label="gini = 0.0\nsamples = 1\nvalue = [0, 0, 0 ... 0, 0, 0]"] ;
1028 -> 1029 ;
1030 [label="gini = 0.0\nsamples = 1\nvalue = [0, 0, 0 ... 0, 0, 0]"] ;
1028 -> 1030 ;
1031 [label="X[39] <= 1.35\ngini = 0.816\nsamples = 7\nvalue = [0, 0, 0 ... 0, 0, 0]"] ;
1015 -> 1031 ;
1032 [label="X[31] <= 1.0\ngini = 0.625\nsamples = 4\nvalue = [0, 0, 0 ... 0, 0, 0]"] ;
1031 -> 1032 ;
1033 [label="X[39] <= -0.6\ngini = 0.444\nsamples = 3\nvalue = [0, 0, 0 ... 0, 0, 0]"] ;
1032 -> 1033 ;
1034 [label="gini = 0.0\nsamples = 1\nvalue = [0, 0, 0 ... 0, 0, 0]"] ;
1033 -> 1034 ;
1035 [label="X[0] <= 3361.0\ngini = 0.5\nsamples = 2\nvalue = [0, 0, 0 ... 0, 0, 0]"] ;
1033 -> 1035 ;
1036 [label="gini = 0.0\nsamples = 1\nvalue = [0, 0, 0 ... 0, 0, 0]"] ;
1035 -> 1036 ;
1037 [label="gini = 0.0\nsamples = 1\nvalue = [0, 0, 0 ... 0, 0, 0]"] ;
1035 -> 1037 ;
1038 [label="gini = 0.0\nsamples = 1\nvalue = [0, 0, 0 ... 0, 0, 0]"] ;
1032 -> 1038 ;
1039 [label="X[31] <= 0.05\ngini = 0.667\nsamples = 3\nvalue = [0, 0, 0 ... 0, 0, 0]"] ;
1031 -> 1039 ;
1040 [label="X[4] <= 76.0\ngini = 0.5\nsamples = 2\nvalue = [0, 0, 0 ... 0, 0, 0]"] ;
1039 -> 1040 ;
1041 [label="gini = 0.0\nsamples = 1\nvalue = [0, 0, 0 ... 0, 0, 0]"] ;
1040 -> 1041 ;
1042 [label="gini = 0.0\nsamples = 1\nvalue = [0, 0, 0 ... 0, 0, 0]"] ;
1040 -> 1042 ;
1043 [label="gini = 0.0\nsamples = 1\nvalue = [0, 0, 0 ... 0, 0, 0]"] ;
1039 -> 1043 ;
1044 [label="X[4] <= 246.5\ngini = 0.998\nsamples = 947\nvalue = [0, 0, 0 ... 0, 0, 0]"] ;
1014 -> 1044 ;
1045 [label="X[31] <= 17.8\ngini = 0.997\nsamples = 486\nvalue = [0, 0, 0 ... 0, 0, 0]"] ;
1044 -> 1045 ;
1046 [label="X[39] <= -1.15\ngini = 0.997\nsamples = 453\nvalue = [0, 0, 0 ... 0, 0, 0]"] ;
1045 -> 1046 ;
1047 [label="X[4] <= 71.5\ngini = 0.942\nsamples = 19\nvalue = [0, 0, 0 ... 0, 0, 0]"] ;
1046 -> 1047 ;
1048 [label="X[31] <= 0.6\ngini = 0.923\nsamples = 13\nvalue = [0, 0, 0 ... 0, 0, 0]"] ;
1047 -> 1048 ;
1049 [label="X[0] <= 4075.5\ngini = 0.909\nsamples = 11\nvalue = [0, 0, 0 ... 0, 0, 0]"] ;
1048 -> 1049 ;
1050 [label="gini = 0.0\nsamples = 1\nvalue = [0, 0, 0 ... 0, 0, 0]"] ;
1049 -> 1050 ;
1051 [label="X[45] <= 0.5\ngini = 0.9\nsamples = 10\nvalue = [0, 0, 0 ... 0, 0, 0]"] ;
1049 -> 1051 ;
1052 [label="X[0] <= 5537.5\ngini = 0.8\nsamples = 5\nvalue = [0, 0, 0 ... 0, 0, 0]"] ;
1051 -> 1052 ;
1053 [label="gini = 0.0\nsamples = 1\nvalue = [0, 0, 0 ... 0, 0, 0]"] ;
1052 -> 1053 ;
1054 [label="X[4] <= 63.0\ngini = 0.75\nsamples = 4\nvalue = [0, 0, 0 ... 0, 0, 0]"] ;
1052 -> 1054 ;
1055 [label="gini = 0.0\nsamples = 1\nvalue = [0, 0, 0 ... 0, 0, 0]"] ;
1054 -> 1055 ;
1056 [label="X[39] <= -2.65\ngini = 0.667\nsamples = 3\nvalue = [0, 0, 0 ... 0, 0, 0]"] ;
1054 -> 1056 ;
1057 [label="gini = 0.0\nsamples = 1\nvalue = [0, 0, 0 ... 0, 0, 0]"] ;
1056 -> 1057 ;
1058 [label="X[38] <= 10.05\ngini = 0.5\nsamples = 2\nvalue = [0, 0, 0 ... 0, 0, 0]"] ;
1056 -> 1058 ;
1059 [label="gini = 0.0\nsamples = 1\nvalue = [0, 0, 0 ... 0, 0, 0]"] ;
1058 -> 1059 ;
1060 [label="gini = 0.0\nsamples = 1\nvalue = [0, 0, 0 ... 0, 0, 0]"] ;
1058 -> 1060 ;
1061 [label="X[38] <= 6.35\ngini = 0.8\nsamples = 5\nvalue = [0, 0, 0 ... 0, 0, 0]"] ;
1051 -> 1061 ;
1062 [label="gini = 0.0\nsamples = 1\nvalue = [0, 0, 0 ... 0, 0, 0]"] ;
1061 -> 1062 ;
1063 [label="X[38] <= 7.7\ngini = 0.75\nsamples = 4\nvalue = [0, 0, 0 ... 0, 0, 0]"] ;
1061 -> 1063 ;
1064 [label="gini = 0.0\nsamples = 1\nvalue = [0, 0, 0 ... 0, 0, 0]"] ;
1063 -> 1064 ;
1065 [label="X[39] <= -4.9\ngini = 0.667\nsamples = 3\nvalue = [0, 0, 0 ... 0, 0, 0]"] ;
1063 -> 1065 ;
1066 [label="gini = 0.0\nsamples = 1\nvalue = [0, 0, 0 ... 0, 0, 0]"] ;
1065 -> 1066 ;
1067 [label="X[4] <= 65.5\ngini = 0.5\nsamples = 2\nvalue = [0, 0, 0 ... 0, 0, 0]"] ;
1065 -> 1067 ;
1068 [label="gini = 0.0\nsamples = 1\nvalue = [0, 0, 0 ... 0, 0, 0]"] ;
1067 -> 1068 ;
1069 [label="gini = 0.0\nsamples = 1\nvalue = [0, 0, 0 ... 0, 0, 0]"] ;
1067 -> 1069 ;
1070 [label="X[13] <= 3.0\ngini = 0.5\nsamples = 2\nvalue = [0, 0, 0 ... 0, 0, 0]"] ;
1048 -> 1070 ;
1071 [label="gini = 0.0\nsamples = 1\nvalue = [0, 0, 0 ... 0, 0, 0]"] ;
1070 -> 1071 ;
1072 [label="gini = 0.0\nsamples = 1\nvalue = [0, 0, 0 ... 0, 0, 0]"] ;
1070 -> 1072 ;
1073 [label="X[38] <= 15.2\ngini = 0.778\nsamples = 6\nvalue = [0, 0, 0 ... 0, 0, 0]"] ;
1047 -> 1073 ;
1074 [label="X[0] <= 4453.5\ngini = 0.625\nsamples = 4\nvalue = [0, 0, 0 ... 0, 0, 0]"] ;
1073 -> 1074 ;
1075 [label="gini = 0.0\nsamples = 1\nvalue = [0, 0, 0 ... 0, 0, 0]"] ;
1074 -> 1075 ;
1076 [label="X[0] <= 5548.5\ngini = 0.444\nsamples = 3\nvalue = [0, 0, 0 ... 0, 0, 0]"] ;
1074 -> 1076 ;
1077 [label="gini = 0.0\nsamples = 2\nvalue = [0, 0, 0 ... 0, 0, 0]"] ;
1076 -> 1077 ;
1078 [label="gini = 0.0\nsamples = 1\nvalue = [0, 0, 0 ... 0, 0, 0]"] ;
1076 -> 1078 ;
1079 [label="X[0] <= 5002.5\ngini = 0.5\nsamples = 2\nvalue = [0, 0, 0 ... 0, 0, 0]"] ;
1073 -> 1079 ;
1080 [label="gini = 0.0\nsamples = 1\nvalue = [0, 0, 0 ... 0, 0, 0]"] ;
1079 -> 1080 ;
